#ifndef WEIGHTS_H
#define WEIGHTS_H

const float dense_8_weights[784][32] = {
    {-0.05016665,  0.01053483,    0.015152544,  0.08006852,   0.027303182,
     0.05677002,   -0.015238494,  -0.046447214, -0.078880705, 0.0008813068,
     -0.02359987,  0.031161085,   -0.03831957,  0.049355246,  -0.03384752,
     0.009630211,  0.02676981,    0.027373776,  -0.033205222, 0.04678356,
     -0.061982922, -0.0147803575, -0.070481546, 0.06644385,   -0.00061618537,
     -0.014271088, 0.040468864,   0.052298076,  0.08129274,   0.062426813,
     -0.041734003, 0.039847188},
    {-0.085466035,  0.02563718,  -0.06406259,   -0.07624964,  0.07186987,
     -0.0067468584, 0.067549296, -0.0074161664, 0.021723337,  -0.0038651004,
     -0.004422106,  0.047520675, 0.06665314,    -0.04297474,  0.062107854,
     0.0048625395,  0.08192698,  0.07935306,    -0.041490816, 0.020418115,
     0.085251145,   0.050830774, -0.054713875,  0.052206554,  -0.0059833303,
     0.04849135,    0.06841447,  0.076518334,   0.054005735,  -0.06962426,
     -0.047563978,  -0.07637324},
    {0.0721656,     -0.044414382, 0.005788371,    0.052497707,  -0.027330533,
     -0.027559265,  0.01407025,   0.0078012273,   0.053188108,  0.057319842,
     0.0436799,     -0.057536956, 0.022561058,    -0.07862442,  0.07922403,
     -0.06893897,   -0.081241585, -0.00033775717, 0.01759383,   0.076630495,
     0.047067188,   0.0045407414, -0.074461505,   -0.017502956, -0.034611702,
     0.047571786,   0.01237078,   0.08088858,     -0.08139909,  -0.081021234,
     -0.0077688694, -0.026625842},
    {-0.028961819, -0.052566905, 0.084367625,   0.010661684,  -0.01701229,
     0.067593716,  0.04574006,   0.03535945,    0.022806719,  0.08200353,
     -0.002661407, 0.0025705323, -0.0050816536, 0.011134207,  0.03255806,
     -0.076206684, 0.044624023,  -0.054770343,  0.04421238,   -0.011862308,
     -0.04548022,  -0.0651383,   0.049393572,   -0.060848534, -0.048105095,
     -0.055138156, -0.04300884,  0.0028034374,  -0.031527936, -0.06400506,
     -0.020825267, -0.029052082},
    {0.037440345,  -0.07740083,  -0.062796354, 0.038741842,  -0.083036244,
     -0.036854435, 0.011530317,  -0.05646719,  -0.027142182, 0.045557804,
     -0.051562153, 0.072216116,  -0.08188938,  0.016451225,  0.009175941,
     0.0745369,    0.06155797,   0.06946892,   0.028224029,  0.014224827,
     0.051928602,  0.005932465,  0.08494135,   0.001796864,  0.017476067,
     -0.07112271,  -0.045530308, 0.061218895,  -0.003790766, 0.048905768,
     0.026693858,  0.072269775},
    {0.07590274,   0.007144846,  -0.08299918,  0.061397396,  -0.069866724,
     0.080379315,  -0.07114809,  -0.008714393, 0.051405407,  -0.052666754,
     0.025178902,  -0.058867875, -0.05932174,  0.015869662,  -0.07841525,
     0.0027867109, -0.022336788, 0.07128812,   0.06791886,   0.020469576,
     -0.08335752,  -0.043629996, 0.068984635,  -0.029679984, 0.015789077,
     0.024372049,  0.078099795,  -0.017842531, -0.08483108,  0.05572664,
     -0.005955301, 0.008594468},
    {-0.021848597, -0.032403562, -0.035458114, -0.04214828, -0.011277564,
     0.08470028,   -0.083564416, -0.06941466,  -0.08164454, -0.018720508,
     -0.048393134, 0.047994412,  -0.039763667, 0.023928903, 0.015080556,
     -0.02576416,  -0.027317755, 0.023589626,  0.015732728, 0.031626478,
     0.044185303,  0.023876995,  -0.0726381,   -0.04638551, -0.07720984,
     -0.03420617,  0.010668412,  0.03656648,   -0.04783891, 0.08422849,
     0.059754647,  0.028268293},
    {0.05427424,  -0.038047254, 0.05918955,   0.04142355,   -0.030502781,
     0.0195667,   0.055080153,  0.009097576,  -0.030141614, -0.049305152,
     0.031765133, 0.0026914403, 0.037651554,  0.08443784,   0.059523292,
     -0.04501397, 0.009188965,  0.002539128,  0.020423107,  -0.06980981,
     -0.07054402, 0.022268131,  -0.043776073, -0.01830531,  0.057940282,
     0.024890967, -0.080257095, 0.029815651,  0.0100296065, -0.046737604,
     0.005058348, 0.017101407},
    {0.030404933,  -0.021566369, -0.055649996, 0.07670381,   0.031707317,
     0.012093395,  0.033219963,  -0.076978475, -0.040765844, 0.06001451,
     0.036996745,  0.08356785,   -0.050326627, 0.03450848,   0.084145404,
     -0.06979656,  0.009103835,  -0.018363453, 0.060028188,  -0.028950863,
     0.07521463,   0.072098784,  -0.06741442,  0.08297751,   0.03779184,
     -0.029909838, 0.07699644,   -0.07329591,  -0.01682973,  0.03572908,
     0.078387104,  -0.028448608},
    {-0.01707115,  0.08316059,   -0.05587797,   -0.07723355,  0.02031003,
     0.084186204,  0.061978914,  -0.006616816,  0.017213933,  -0.023262236,
     -0.011952534, 0.07486626,   0.039056115,   -0.077432215, -0.0734782,
     0.039197117,  0.04668816,   0.020111904,   0.02739203,   -0.040463597,
     -0.044543345, -0.052525915, -0.0053209364, 0.08075794,   0.0103009045,
     0.044378303,  0.05170109,   -0.008982293,  -0.02938706,  -0.07214779,
     -0.038048234, 0.07357509},
    {0.006866537,  -0.08192168,  -0.045484986, -0.039797485,  -0.0585339,
     0.0142468065, -0.054193303, -0.055737495, 0.00024598837, -0.083483234,
     0.075067334,  -0.079450525, 0.03956417,   -0.06590435,   -0.050549775,
     0.01785846,   0.05452963,   -0.004488468, 0.079553284,   -0.05118428,
     0.064249106,  0.05408237,   -0.030791823, -0.026830796,  -0.008077472,
     0.05681234,   0.05049964,   0.07962973,   -0.04748132,   -0.05631529,
     0.012883522,  0.006062776},
    {0.013003796,  -0.058657136, -0.0066774487, -0.058675557,  -0.0025201216,
     0.056047864,  -0.06898617,  0.008063935,   0.06723028,    -0.079287425,
     0.04956796,   0.013853684,  0.008905955,   -0.0018903315, 0.015773192,
     0.0046599507, -0.027767446, 0.048650704,   0.04487554,    0.05764725,
     0.07739795,   -0.030169152, -0.035803378,  -0.042713687,  -0.04521823,
     0.077786185,  -0.046191886, 0.007879712,   -0.0033998936, 0.029551432,
     0.0084682405, -0.011885412},
    {-0.026684353,  -0.030320194,  0.018231649, -0.0816021,  -0.124198,
     -0.034510694,  -0.07940369,   0.10563666,  0.019149724, -0.038576562,
     -0.043325193,  -0.006497563,  0.022444764, 0.04691223,  -0.09792538,
     -0.07744186,   0.090492286,   0.02159679,  -0.0910913,  -0.051580124,
     0.089445114,   -0.0019676804, -0.03114094, 0.10233933,  -0.056269385,
     -0.0027859267, -0.020302046,  0.13699773,  -0.09203525, 0.090068065,
     -0.024507433,  0.056236967},
    {0.108768344,  -0.088338666, -0.122427054, -0.094532974, -0.051395807,
     -0.02711715,  -0.031229556, 0.02437316,   0.103739835,  -0.00880643,
     0.0045068506, -0.022544637, 0.023919243,  0.024742534,  -0.037045028,
     0.06285291,   0.048844606,  -0.117617786, -0.05048847,  0.06455808,
     0.10670286,   -0.01194775,  0.09801674,   0.022573583,  -0.00021590943,
     0.055469587,  -0.019100226, 0.06886984,   -0.07942016,  -0.04610406,
     -0.026127677, 0.017755404},
    {0.063379616, 0.0743241,    -0.012079038, -0.018248888, 0.08852029,
     -0.1299647,  0.033758134,  -0.013015855, 0.015217061,  -0.116858326,
     0.04243319,  -0.003402255, 0.08701132,   -0.008848719, 0.09410644,
     0.03514782,  0.051533252,  0.045924168,  0.100603014,  0.021346629,
     0.008593142, -0.04572628,  0.043960936,  -0.012011717, -0.03104036,
     0.097904764, 0.037539504,  -0.109278396, 0.031833347,  -0.013469167,
     0.049120985, 0.07490829},
    {-0.068749376, 0.08419008,   0.040367596,  -0.092047535, 0.0033716469,
     -0.03168354,  -0.026714794, -0.040971693, 0.054246582,  0.011543109,
     -0.020253386, -0.020201536, 0.0014595507, -0.015713967, 0.045275655,
     0.074618444,  -0.035251953, -0.014731588, 0.002823536,  0.025281489,
     0.0695624,    -0.07305354,  0.044336773,  0.05693375,   -0.0031171322,
     -0.033336576, 0.07976866,   0.03643068,   -0.04679431,  -0.08544941,
     -0.077504724, -0.016615614},
    {0.031353734,  -0.017683722, 0.037639312,  -0.07490359,  0.002811879,
     -0.037162796, -0.06012865,  0.08109573,   0.04453396,   0.026584566,
     -0.025835957, 0.0043323785, -0.039393872, 0.015491366,  0.06490659,
     0.085511915,  0.07957653,   -0.00426998,  -0.039107103, 0.03311093,
     -0.0836172,   0.036237486,  0.03884642,   -0.006172277, -0.0828069,
     -0.025972567, 0.07156225,   -0.030654132, -0.08269415,  0.009640984,
     0.07194819,   -0.047282502},
    {-0.029235937, 0.009439342,  0.030342273,  -0.010430053, 0.076781385,
     -0.034840964, 0.0014002025, -0.008456059, 0.022540122,  0.000935182,
     0.06207899,   0.07794946,   0.049493708,  -0.052877717, -0.065084845,
     -0.047516037, -0.02240932,  0.052004866,  -0.060808115, 0.07446181,
     -0.045559175, 0.030549943,  0.03587258,   -0.056352317, -0.03929938,
     -0.008374013, 0.0019134954, 0.083821826,  -0.036026362, -0.025132064,
     0.038555436,  0.071791135},
    {-0.051446702, -0.007582091, 0.025375433,  -0.05861733,  -0.081585154,
     0.065824516,  0.053202786,  -0.075417615, 0.015647031,  0.046829335,
     0.057316072,  0.062345214,  -0.07899869,  0.05582606,   0.07276956,
     0.033653766,  0.047940843,  0.051880144,  -0.064574085, -0.012630053,
     0.018700473,  -0.07803671,  0.018262662,  -0.07195598,  -0.07855213,
     0.040948324,  0.057207726,  0.0049134046, 0.051737197,  0.065562434,
     0.06897365,   0.03924851},
    {0.026268132,   0.02742979,   0.07579074,    -0.026616007, -0.059278905,
     0.0034617782,  -0.062358566, 0.055743508,   -0.06016919,  -0.077613205,
     -0.0015518367, -0.016927205, 0.021701075,   -0.014622077, -0.017826155,
     -0.021759994,  0.073966466,  -0.013205558,  0.011782192,  0.083873786,
     0.06295424,    0.033597462,  0.00026196986, 0.020162463,  -0.013200894,
     -0.05702485,   0.08285051,   -0.056494076,  0.035792887,  -0.06974517,
     0.078447245,   0.044560887},
    {-0.00282979, 0.034946866,  0.069179006,   0.0062883794,  0.028642707,
     -0.06288274, 0.08329592,   -0.0055375844, -0.080942586,  -0.042873625,
     0.066931,    -0.06701727,  0.025389664,   0.04998169,    -0.04071972,
     0.07189416,  0.068373464,  0.050175734,   -0.059470367,  -0.044794336,
     -0.02782641, -0.056249686, 0.06458712,    0.072354995,   -0.016782396,
     -0.05529621, -0.08492637,  0.06505119,    -0.0027541816, 0.0735862,
     0.074272476, -0.011011973},
    {-0.053950652, -0.018183134,  0.018157639, -0.06573261,   -0.0032447055,
     0.050216697,  0.018942408,   0.0049567,   0.06290109,    0.055530228,
     -0.042404287, -0.05977288,   -0.00790631, -0.039884616,  0.06471149,
     -0.014414996, 0.08040395,    0.047791056, -0.0008665249, 0.027318351,
     0.044206895,  0.044308893,   0.040242173, -0.061893582,  -0.056117043,
     -0.021263793, -0.0063654557, 0.017739043, 0.069171526,   0.026605584,
     -0.010364853, 0.027229108},
    {0.041749023,  0.08202722,    -0.014168419, 0.003955774,   -0.0184623,
     -0.07153426,  -0.0071851835, -0.020731263, -0.07339685,   0.06694239,
     -0.030855283, -0.016399704,  0.004603833,  -0.007968016,  0.045268334,
     -0.048159946, 0.0731001,     -0.07340425,  -0.0060355216, -0.018486917,
     0.032476857,  0.081597246,   0.04975065,   -0.029373627,  0.07334042,
     0.033973657,  0.039514296,   -0.07501233,  -0.009938695,  -0.078263335,
     -0.022673339, 0.0803049},
    {-0.05924998,  0.073041655,  0.032807335,  -0.04639612,  0.025289342,
     0.03166739,   0.04760299,   -0.036396813, -0.026240285, 0.060628556,
     0.017318793,  0.07961341,   -0.08435142,  -0.076365106, -0.056227833,
     -0.03885766,  0.028888203,  0.079349555,  0.059208922,  -0.031940687,
     -0.06418659,  0.036089435,  -0.07606791,  0.046421774,  0.055278517,
     0.07948267,   -0.053569306, 0.07900765,   0.04627929,   0.08534094,
     -0.037667155, -0.058819033},
    {-0.0313588,   -0.07117536,  -0.00045026094, -0.08540701,  0.017829634,
     0.0004325807, 0.05273377,   -0.032186344,   -0.080116704, -0.077753186,
     -0.008304544, -0.07582885,  -0.0677576,     0.054226674,  -0.04816563,
     0.014204033,  0.06728149,   0.054229386,    0.06256401,   0.02712243,
     -0.03870519,  0.020069808,  0.03573262,     0.07005436,   -0.07904577,
     -0.07790644,  -0.054482244, 0.0426059,      -0.040037744, -0.054857925,
     -0.056157276, 0.020468943},
    {0.04700961,   -0.011159293, -0.0840395,   -0.04303642,  -0.07090034,
     0.07563151,   -0.037506584, 0.016007073,  0.061675824,  -6.765127e-05,
     -0.015109286, -0.06716046,  0.008016303,  0.03045971,   -0.048683014,
     0.057757817,  0.00852745,   -0.070063524, -0.051982813, 0.0726374,
     0.057388015,  -0.00763005,  0.047870494,  -0.05501281,  0.021537378,
     -0.057654306, -0.082726404, 0.0616514,    -0.045086302, 0.03681688,
     0.028404608,  0.07533672},
    {0.032716483, -0.04579414,  -0.0074942783, -0.06788018,  -0.037798,
     0.065230675, -0.019074358, -0.07572305,   0.039628617,  0.023499407,
     0.07970653,  -0.06694208,  -0.023880754,  -0.052205082, -0.023373596,
     0.07974281,  -0.038538568, -0.02281782,   -0.07963105,  0.079397984,
     -0.01776746, 0.035064377,  0.06356741,    -0.028640233, 0.07131966,
     0.05734127,  -0.022064775, 0.020508662,   0.028118722,  0.025440238,
     0.053058572, 0.045978673},
    {0.006528519,  -0.08184667,  -0.05583156,  -0.055932164, -0.08469721,
     -0.025822587, 0.033574857,  -0.07511146,  -0.058685184, 0.07414547,
     -0.08326205,  -0.0497124,   0.061755873,  -0.036728784, -0.024124064,
     0.07490853,   -0.060109906, 0.055987813,  -0.027019128, -0.03182301,
     -0.08054918,  -0.08251299,  -0.042097908, 0.0856589,    0.038982168,
     0.08148136,   0.08382759,   0.07028236,   0.044321038,  -0.004278712,
     0.0177868,    0.034979805},
    {-0.06455519, -0.07658832, 0.07031173,   0.08245877,   0.0732067,
     0.07394097,  0.057736777, -0.04014397,  0.011532426,  -0.062133636,
     -0.01593022, 0.013234161, -0.06922132,  -0.035414875, 0.044937126,
     0.015423983, 0.037018314, -0.011518523, 0.01995749,   0.059568398,
     0.05787743,  0.041495033, 0.023600176,  -0.013777792, 0.0153802335,
     0.078673504, -0.03606958, 0.021410033,  -0.03701703,  0.07426577,
     0.03527209,  0.014057487},
    {-0.01066798,   -0.057582058,   0.0057575405, 0.06960373,   -0.044877913,
     0.031124637,   -0.00056340545, -0.050321046, 0.032192968,  0.034330964,
     -0.024609081,  -0.08244399,    0.03126952,   -0.025724906, 0.0677289,
     0.00029799342, -0.06561093,    -0.010434426, -0.05697053,  -0.0014407635,
     -0.0697515,    0.047390856,    -0.05172587,  0.067564644,  -0.05834438,
     -0.036633495,  0.07241396,     0.03862106,   0.07765999,   0.07682475,
     0.015897594,   0.012813643},
    {-0.04224433,  -0.05195006,   0.004894696, 4.36306e-05,  -0.026109912,
     0.040622838,  -0.0029585063, 0.029823892, -0.082033,    -0.0647248,
     -0.043338176, -0.04774996,   -0.08057034, 0.055536576,  0.06593945,
     -0.022153705, -0.022355065,  -0.07883596, -0.01694949,  -0.045562487,
     -0.06565374,  -0.071283385,  0.06910158,  0.0013942942, -0.04243626,
     0.041716076,  0.031254843,   0.047005303, -0.021497734, 0.023953743,
     -0.038029976, -0.035434604},
    {0.06008414,   0.061918445,   0.028924182,  0.020345561,  0.07750612,
     -0.08398818,  -0.03415218,   0.06535704,   0.0013669208, -0.00096236914,
     -0.080508925, 0.011264764,   0.03562388,   -0.04894102,  0.034576356,
     0.02686093,   0.042586572,   -0.028080244, 0.040109344,  -0.039664086,
     -0.06487441,  -0.0005249679, 0.041993953,  0.069804944,  0.07446467,
     0.022687793,  0.0053945556,  -0.00679411,  -0.010568395, -0.034412943,
     -0.020652287, 0.045863144},
    {0.032677967,  -0.012637688, -0.054434318, 0.07601612,  -0.012720692,
     -0.025763188, 0.004583925,  -0.02569269,  0.03083158,  0.0013132055,
     -0.07044448,  -0.021383964, -0.08403862,  0.08737068,  -0.03034734,
     -0.085515305, 0.08098509,   -0.045776013, -0.07372865, 0.047272317,
     -0.02375498,  0.03806692,   0.06498173,   0.05336132,  -0.00031204434,
     0.027330741,  0.023873828,  -0.013196522, -0.11364809, 0.008905283,
     0.035643317,  -0.07283838},
    {0.048246007,  -0.004683622, -0.07908167,  -0.023489539, -0.013976246,
     0.04094354,   0.06451392,   0.072845116,  0.018234614,  0.0048517874,
     0.070434056,  -0.009261653, -0.11067098,  0.0826145,    -0.13458239,
     -0.05306671,  -0.09822818,  -0.076273076, -0.012271582, 0.055431344,
     0.10270785,   0.07851704,   0.11880247,   0.07571766,   0.083399326,
     0.0051035676, -0.032658998, -0.035354484, -0.12412405,  0.041393578,
     -0.049124386, 0.020857649},
    {0.084599786,   -0.109258376, 0.014821918,  -0.109834105, -0.15286943,
     0.15562919,    0.07930462,   0.18061948,   0.010412332,  -0.084763594,
     -0.022927336,  0.14570585,   -0.018261654, 0.12992479,   -0.09290165,
     -0.0085920645, -0.12980336,  -0.20088646,  -0.090224676, -0.06926972,
     0.042055115,   0.14284232,   0.1896488,    0.055604417,  0.18019648,
     -0.051053368,  0.06655585,   -0.11174147,  -0.071767695, 0.06129784,
     -0.09665505,   -0.1783841},
    {0.14056203,   -0.16525963, -0.107992895,   -0.2235593,  -0.103327915,
     0.09288602,   0.07181627,  0.15157965,     -0.10059392, -0.19853109,
     -0.094348505, 0.07450418,  -0.00069391006, 0.20551613,  -0.13234955,
     -0.1277597,   -0.03819789, -0.17701899,    -0.11783471, 0.022075962,
     0.16108309,   0.13846788,  0.08484178,     0.08481629,  0.080478445,
     0.013106829,  0.02571087,  -0.014221175,   -0.1569716,  0.015611755,
     -0.15153888,  -0.13467288},
    {0.12140757,   -0.15013811,  -0.14582033,  -0.16380098,  -0.044731017,
     0.14723064,   -0.060550142, 0.18015058,   -0.040225927, -0.096724726,
     -0.007248624, 0.05615362,   -0.1322199,   0.04449009,   -0.05809229,
     -0.06392377,  0.0073727295, -0.09791915,  -0.045511622, -0.065227434,
     0.12521853,   0.10593998,   0.10445233,   0.15617602,   0.14156002,
     -0.027538314, 0.09301031,   -0.022066133, -0.14188473,  -0.047391552,
     -0.1437683,   -0.1937472},
    {0.12417937,  -0.15473558,  0.009847984,   -0.11786272, -0.03652632,
     0.04956503,  0.09497418,   0.025011364,   0.09507233,  -0.14256857,
     -0.0711058,  0.13689747,   -0.07240242,   0.05412618,  -0.13911375,
     -0.10342873, -0.027620126, -0.0092249,    0.029407648, 0.05731982,
     0.087695196, 0.01906742,   0.028848777,   0.10356689,  0.11309845,
     -0.06423823, 0.10691153,   -0.0042776926, -0.03113523, -0.09352986,
     -0.1105799,  -0.10559079},
    {0.18469737,   -0.08207064,  -0.08100934,  -0.17050557, -0.14067097,
     0.0718561,    -0.088675335, 0.12670912,   0.21287431,  -0.14934869,
     0.048446044,  0.10230476,   -0.15242095,  0.1071438,   -0.17850928,
     -0.12424283,  -0.08948762,  -0.070019305, 0.01287744,  -0.057015862,
     0.15671265,   0.015703315,  0.057208836,  0.032249063, -0.009527088,
     -0.053765673, 0.14460488,   0.15565574,   -0.14413948, -0.013812751,
     -0.14577848,  -0.024143051},
    {0.16908439,  -0.13861187,  -0.118191645, -0.21843809, -0.12066894,
     0.1577901,   0.041866194,  0.15561333,   0.2057615,   -0.1521958,
     0.013762243, 0.14686441,   -0.10372597,  0.18259428,  -0.1774647,
     -0.0531745,  -0.06817093,  -0.13655846,  -0.1809156,  -0.009090857,
     0.105743244, -0.014043524, 0.034122214,  0.039123576, 0.10954149,
     0.020043623, 0.058091972,  0.12887575,   -0.20805657, 0.15896334,
     -0.17966779, 0.01968556},
    {0.13306278,  -0.23117527, -0.10920451, -0.18101928, -0.21529685,
     0.1580574,   0.06343389,  0.28309372,  0.08298968,  -0.11607422,
     -0.04464915, 0.12204709,  -0.1831373,  0.15979946,  -0.0596954,
     -0.16096227, -0.12097242, -0.10678679, -0.13573264, -0.044283245,
     0.13928644,  0.0687475,   0.009583453, 0.010632519, 0.025779074,
     -0.05919171, 0.10321434,  0.16413322,  -0.19454394, 0.17552069,
     -0.18098567, -0.015657412},
    {0.15144038,   -0.2548687,   -0.048055124, -0.28362465,   -0.10986742,
     0.141519,     -0.035999753, 0.10329272,   0.17071968,    -0.048287474,
     0.0032231673, 0.15479895,   -0.07242433,  0.1058633,     -0.03172363,
     -0.1993826,   -0.010394127, -0.09170504,  -0.027924133,  0.022498174,
     0.21311857,   0.10700816,   0.03461708,   -0.0012651237, 0.022365313,
     -0.027206821, 0.061058782,  0.10374267,   -0.15985031,   0.32416382,
     -0.20936154,  -0.060946696},
    {-0.08884749,  -0.06920966,  -0.022607036,  -0.020028383, -0.0055647367,
     0.05696172,   -0.01049623,  -0.03776268,   0.103410006,  -0.07967087,
     -0.009637055, -0.1111119,   -0.04656288,   0.05367226,   0.039683275,
     -0.25693047,  -0.014883939, -0.0012447888, -0.027602633, -0.017707178,
     -0.015597796, 0.10286487,   -0.06024768,   0.08442373,   -0.04457447,
     -0.068892226, -0.080766805, -0.07305593,   -0.023624187, 0.049922854,
     -0.31867403,  -0.07236702},
    {0.02694045,   0.028513094, 0.065462165, -0.18917544,  0.028247355,
     0.004214567,  0.027780034, 0.12860605,  -0.11718947,  -0.17899135,
     0.07027096,   0.13408898,  0.08867095,  0.16592915,   -0.12131245,
     -0.029543107, -0.18968542, -0.06122584, -0.1566088,   0.013951518,
     0.07584561,   0.17722586,  0.11853331,  -0.023977567, -0.064988606,
     0.049325187,  0.08009676,  -0.20757732, 0.09377945,   -0.017066,
     -0.11682112,  -0.21492344},
    {0.19427842,  0.029455509, -0.058034368, -0.2806237,   -0.07118206,
     0.10690071,  -0.05628919, 0.012390955,  -0.14157346,  -0.3072802,
     0.083339065, 0.23973143,  -0.015847148, 0.16692837,   -0.008252562,
     0.14232063,  -0.150943,   -0.08174504,  -0.15263529,  -0.12311865,
     0.16330664,  0.12807454,  0.04772413,   -0.050076894, 0.24317071,
     0.19679384,  0.26737893,  -0.14825276,  0.18865842,   -0.20876163,
     -0.12481048, -0.11427804},
    {0.16715455, -0.1302179,  -0.12777258,  -0.18005288,  -0.069917314,
     0.16956033, 0.03820481,  0.21316846,   0.08362464,   -0.15430938,
     0.11801967, 0.2182778,   -0.16008854,  0.15220326,   -0.12654841,
     0.03077774, -0.23658328, -0.04845217,  -0.056777015, -0.1849611,
     0.21628015, 0.2489255,   0.09884682,   0.027607078,  0.101520166,
     0.08427827, 0.07675106,  0.0110178115, -0.031112751, -0.12436536,
     -0.0917419, -0.0497305},
    {0.068769656,  -0.18266991, 0.009687656,  -0.18613254, -0.07816583,
     0.12008554,   -0.0804856,  0.19546123,   0.042320106, -0.1372396,
     -0.034778796, 0.052545957, -0.117907256, 0.08127712,  -0.23547345,
     -0.13411392,  0.017886033, -0.09068418,  0.07106671,  -0.07328474,
     0.18176387,   0.11954768,  0.05541833,   0.22095823,  0.075688384,
     -0.089354165, 0.06455242,  0.10788121,   -0.19486673, 0.15045612,
     -0.30579695,  -0.12734415},
    {0.06089462,   -0.038220447, -0.100690216, -0.17462291,   -0.09017619,
     0.114879765,  0.013173718,  0.20035033,   0.05902002,    -0.05205296,
     -0.028187973, 0.055623125,  -0.0662987,   0.06293084,    -0.13979635,
     -0.053478524, -0.027931666, -0.05357199,  -0.0046565356, 0.015892522,
     0.13237455,   0.064665765,  0.15616858,   0.10229631,    0.15771313,
     -0.07234926,  0.17114978,   0.059004426,  -0.20386508,   0.09336486,
     -0.1587627,   -0.0692738},
    {0.08303749,  -0.09152056,  0.032809235, -0.24662864,  -0.12661092,
     0.16456865,  -0.011142102, 0.20836656,  0.017464172,  -0.20586874,
     0.060338818, 0.12633997,   -0.03796752, 0.096270315,  -0.22521368,
     -0.1120964,  -0.05589841,  -0.10224506, -0.07004234,  -0.14732473,
     0.033233598, 0.12328292,   0.16943295,  0.04957681,   0.15013468,
     -0.05740504, 0.06754259,   0.016672295, -0.042965144, 0.08589807,
     -0.11673407, -0.18419188},
    {0.11601185,   0.036102187,  -0.105872266, -0.054799248, -0.116076775,
     0.15292163,   -0.035376463, 0.19037515,   -0.002929978, -0.13624127,
     -0.033905786, 0.11315738,   -0.06635962,  0.19353808,   -0.16364972,
     -0.046026092, -0.0135828,   -0.107299596, 0.015565188,  0.022891954,
     0.20473008,   0.19300392,   0.052433543,  0.128435,     0.052103784,
     0.058201198,  0.0355538,    -0.09488225,  0.08265695,   0.07706131,
     0.0059884954, -0.097299956},
    {0.083185464,   -0.021733075, -0.059452605, -0.10910388,  -0.08657406,
     0.04047899,    0.018259663,  0.16663302,   -0.14681587,  -0.17420575,
     0.003148771,   0.037789624,  -0.076423965, 0.14024918,   -0.17058015,
     -0.038308635,  -0.14232628,  -0.060579672, -0.020801412, -0.07580431,
     0.051372252,   0.19053297,   0.18543012,   0.1117644,    0.06867396,
     0.025080003,   0.12504348,   -0.08101849,  0.018011238,  0.07009023,
     -0.0013295038, 0.03092462},
    {0.034260593,  0.002503401, -0.14744565,  -0.19331953, -0.025247335,
     0.12065893,   0.0635811,   0.18168141,   -0.12575068, -0.055542555,
     0.03859561,   0.054848637, 0.0596659,    0.17768204,  -0.18947643,
     -0.13167654,  -0.0712062,  -0.058460288, -0.10414299, -0.06703998,
     0.03681041,   0.18450266,  0.12145139,   0.19103716,  0.07497826,
     0.03766133,   0.13972524,  -0.03882506,  0.10240217,  0.1978148,
     -0.099155016, -0.096220136},
    {-0.063923895, -0.017111488, 0.0752772,    0.073800154,  0.08334681,
     0.05301825,   0.0142918825, -0.050135452, -0.059252083, -0.055060957,
     0.027982213,  0.07033075,   0.018459782,  0.025572844,  -0.03978577,
     0.0735131,    -0.043558728, 0.080109246,  0.041302837,  0.0762875,
     0.015716888,  0.038631894,  -0.010068886, -0.037175797, 0.017457508,
     -0.005869396, -0.03233207,  0.017654344,  0.033939086,  0.016148828,
     -0.0832002,   0.070980094},
    {0.044740446,  0.04101535,   0.03511551,   -0.074471116,  -0.066743724,
     -0.018894978, -0.064279765, 0.061322026,  -0.023737133,  0.009021707,
     0.020290092,  0.028157152,  0.075120114,  -0.07280932,   -0.054997332,
     0.024364442,  -0.041335095, -0.08211858,  -0.0029665977, 0.05310624,
     0.064694576,  0.067682154,  0.07927903,   -0.005244069,  0.0039610043,
     -0.04257929,  0.04053644,   -0.005072847, 0.07247914,    -0.033221845,
     0.045050643,  0.05727876},
    {0.038130604,  0.08159161,   0.046109684,  0.0584312,    0.01554554,
     0.012106985,  -0.048825856, -0.0453468,   -0.006956212, -0.0148002505,
     -0.07177094,  -0.043942224, 0.07027758,   -0.06476491,  0.037151,
     -0.06082183,  0.007610202,  0.07871372,   0.030731328,  0.0055908784,
     -0.081071615, 0.071826674,  -0.018778898, 0.08038246,   -0.056229364,
     0.021215871,  0.015022092,  0.018746436,  0.061050497,  -0.06120935,
     0.017702922,  0.01553487},
    {-5.493313e-05, -0.008243069, -0.075581476, -0.038102474, 0.03915359,
     -0.07506377,   -0.053857118, 0.046933852,  0.0010174066, -0.0056130216,
     -0.035679016,  0.072774015,  0.0558277,    0.045599557,  0.01857131,
     -0.053454265,  0.03417681,   -0.082096644, 0.0013573542, 0.058087908,
     0.0586342,     -0.047411893, 0.084287874,  0.028249115,  0.058543943,
     -0.058199983,  0.045977853,  -0.07414785,  -0.029029164, -0.049913164,
     -0.013187483,  0.041998856},
    {-0.055111945,  0.0038198605, 0.0835417,   -0.07579559,  -0.015390269,
     -0.012130849,  -0.040301412, 0.047260992, -0.031144895, -0.019013964,
     -0.009024754,  -0.055870876, -0.05278707, -0.071034074, 0.05207158,
     -0.0007420853, -0.04077533,  -0.06977945, 0.06896325,   0.055281363,
     0.00022363663, -0.07079665,  0.06788661,  -0.025639676, 0.031121545,
     0.065364234,   0.013164446,  0.043521263, -0.017815933, -0.043570627,
     0.022955328,   -0.014102586},
    {0.065205626,  0.051772915,  0.06397816,   0.079562195,  -0.016994834,
     0.06200575,   0.033650808,  -0.07033737,  0.061276414,  -0.08165282,
     0.028066278,  -0.010224812, -0.03955297,  -0.035555694, -0.04757295,
     -0.03735131,  0.01055795,   -0.024941668, 0.061596833,  0.033163026,
     -0.044036042, -0.030226681, -0.006702438, -0.021074437, -0.039379254,
     0.008892402,  0.04066489,   -0.071950056, 0.06512918,   -0.020361118,
     0.047730394,  -0.07078704},
    {-0.014081542,  -0.056194,    -0.09551587,  -0.0069076153, -0.013642692,
     -0.015192105,  -0.017660992, -0.07100704,  0.012248121,   -0.08750375,
     -0.008766212,  0.057299007,  0.0023544803, 0.076685555,   -0.039042477,
     -0.064876124,  0.047208574,  -0.030790055, -0.012606712,  -0.03216341,
     0.049730003,   -0.032381907, 0.08649766,   -0.012987554,  0.08955184,
     -0.0234677,    0.053075854,  0.031728152,  0.033640813,   0.10216189,
     -0.0011043687, 0.0028037655},
    {0.08943218,   -0.0018228292, -0.0802628,   -0.13746014,   -0.041834693,
     0.12636846,   -0.05998254,   0.057730187,  -0.011881796,  -0.1773159,
     0.14598474,   0.16965578,    -0.07423379,  0.052114535,   -0.012483493,
     0.0050724093, -0.14318463,   -0.09660194,  -0.13413823,   0.05279153,
     0.07389919,   -0.049784105,  -0.012343306, -0.014587265,  0.026155831,
     0.03358066,   0.07912752,    -0.1282047,   -0.0038779376, 0.07061013,
     -0.04263368,  -0.07356608},
    {0.08644996,    -0.089169785, -0.073493995, -0.18980995,  -0.16664048,
     0.18884529,    -0.019354722, 0.198256,     0.016452817,  -0.18775721,
     -0.03366228,   0.16315643,   -0.14957139,  0.22540584,   -0.07661915,
     -0.07969796,   -0.1122079,   -0.124646135, -0.14197907,  0.0065983795,
     0.14928138,    -0.039560024, -0.14850944,  -0.028364558, 0.15777776,
     0.11824805,    0.048962396,  -0.11196878,  -0.15751943,  0.0324651,
     -0.0065312753, -0.047249943},
    {-0.01823655,  -0.0903117,     -0.09140637, -0.096307956, -0.09363331,
     0.012734382,  0.022417838,    0.076464124, 0.008881462,  -0.119548135,
     0.0265377,    0.07756157,     -0.16138136, 0.119653,     -0.017162437,
     -0.013117006, -0.00048382394, -0.11270516, -0.06793097,  0.02507858,
     0.08072683,   0.12758185,     -0.02400334, 0.029548882,  0.06280681,
     -0.109269544, 0.0929092,      0.115821056, -0.09313362,  0.023616826,
     -0.12019368,  -0.12188903},
    {0.086146496,  -0.16995572,   -0.010326558, -0.17704397, -0.04945831,
     0.15198559,   -0.025211375,  0.21053569,   0.14450456,  -0.19135045,
     -0.036866907, 0.00017543523, -0.09261725,  0.08485545,  -0.052349597,
     -0.09101795,  0.0084154075,  -0.056155477, 0.029266905, 0.04343455,
     0.1774025,    0.11230803,    0.08795737,   0.14261799,  0.14204957,
     -0.05499569,  0.15732974,    0.039754935,  -0.13331684, -0.07433552,
     -0.27452073,  -0.17782283},
    {0.1779781,    -0.09732844,   -0.10030626, -0.23978521, -0.22369276,
     0.21819936,   -0.0030274945, 0.13803591,  0.1209657,   -0.18336575,
     -0.07450346,  0.092264004,   -0.1361519,  0.17637184,  -0.22832163,
     -0.040497497, -0.19617373,   -0.09820825, -0.1004814,  0.05088862,
     0.21002378,   0.22078636,    0.21229395,  0.11928139,  0.1153265,
     -0.030581316, 0.053755272,   0.020603187, -0.18483184, 0.0025408755,
     -0.15700145,  -0.17946947},
    {0.1766863,    -0.16600087, -0.11105955, -0.24303266, -0.10192008,
     0.15471147,   0.016689833, 0.19517688,  0.055707224, -0.23436394,
     -0.021416953, 0.19584763,  -0.05054366, 0.21951033,  -0.19139427,
     -0.06708991,  -0.1606582,  -0.24139225, 0.07916926,  -0.023869226,
     0.16099147,   0.22425137,  0.27070716,  0.18738884,  0.12879153,
     0.07584684,   0.15912367,  0.10490355,  -0.1207894,  -0.12245552,
     -0.27533612,  -0.24497688},
    {0.21250843,    0.10378877,   -0.22153269, -0.21774597, 0.016114887,
     -0.0016929187, -0.02206424,  0.056871764, 0.009991191, -0.27284423,
     0.0630976,     0.18440448,   -0.09523664, 0.2563181,   -0.22202961,
     0.08626095,    -0.077397004, -0.07567876, 0.25745928,  -0.23519592,
     0.045670908,   0.18449694,   0.21608685,  0.16173129,  0.15581505,
     0.07921973,    0.18406062,   0.09792745,  0.1354582,   -0.08768248,
     -0.07671808,   -0.023842594},
    {0.2623969,   0.049408484,  -0.11620429, -0.3239629,   -0.09810645,
     0.21202329,  -0.031232614, 0.12153241,  -0.040470116, -0.3123625,
     0.06549323,  0.20892976,   -0.25104663, 0.28326258,   -0.18297693,
     -0.10292866, -0.10783462,  -0.24533165, 0.2612273,    -0.2369256,
     0.07073099,  0.20421794,   0.2802822,   0.18004112,   0.30034277,
     -0.10190636, 0.28984034,   0.06173041,  0.0015731483, -0.050164055,
     0.049325224, -0.112190045},
    {0.10166222,   -0.015724676, -0.13020706, -0.4955396,  -0.058174353,
     0.16539776,   0.040299512,  0.008978398, 0.031436894, -0.32240677,
     0.11010665,   0.1459932,    -0.13526423, 0.29723245,  -0.19634543,
     -0.017996492, -0.07787816,  -0.14035377, 0.22298051,  -0.20874076,
     0.16533862,   0.33671713,   0.18324848,  0.24076074,  0.18751176,
     0.026746653,  0.28527528,   0.10705329,  0.07305663,  -0.05955141,
     0.0059689847, -0.23350997},
    {0.1674865,   0.07105593,   -0.11307114, -0.49573404, 0.0045714555,
     0.17169446,  -0.031225191, 0.041961882, 0.041566428, -0.29508576,
     0.13823538,  0.09559899,   -0.1587003,  0.17421924,  -0.2236785,
     0.004041721, -0.02502073,  -0.22354251, 0.051521067, -0.20575403,
     0.1356118,   0.2554377,    0.26866907,  0.1649178,   0.0950834,
     0.14908932,  0.06286495,   0.10421933,  0.14749756,  -0.08134961,
     -0.08483751, -0.19446914},
    {0.00886963,  0.090428926,  0.03409046,   -0.30909267, 0.036433578,
     0.09279681,  -0.087385476, 0.07390157,   0.025336681, -0.146445,
     0.05953726,  -0.12186311,  -0.037961204, 0.1904485,   -0.16086937,
     -0.01237296, 0.11346257,   -0.09315361,  0.004462018, -0.11220818,
     0.077339426, 0.109733574,  0.13439406,   0.2151367,   0.073080234,
     0.057167955, 0.10094029,   -0.10454178,  0.12945639,  -0.11640383,
     -0.1241969,  -0.15038562},
    {0.004715352, 0.1250552,    -0.110852994, -0.13001624, -0.0020401909,
     0.020052345, -0.042531036, -0.017597169, 0.095562145, -0.11918167,
     -0.06453287, -0.07552425,  -0.14396587,  0.23013248,  -0.109433435,
     -0.14323,    0.07455727,   -0.05958131,  0.19115986,  -0.18778023,
     0.07712449,  0.22645062,   0.19298483,   0.13509405,  -0.017947452,
     0.016751263, 0.06468352,   -0.023833867, 0.13220003,  0.025877114,
     -0.23702875, -0.049465217},
    {-0.059334774, 0.17461157,   0.105469644,  -0.13167086,   0.17260349,
     0.11326901,   0.032138612,  0.055804767,  -0.0048978725, -0.25806913,
     -0.06229216,  -0.19055253,  0.013397175,  0.3099696,     -0.22679386,
     -0.08895848,  -0.092590965, -0.012645128, 0.14035647,    -0.17333224,
     0.0878279,    0.033145387,  0.3135569,    0.20086561,    -0.07462615,
     -0.13496107,  -0.033108957, -0.18706551,  0.19604126,    0.0073672608,
     -0.15747952,  -0.19943799},
    {-0.01909274,  0.13617052,    -0.011617036, -0.093908444, 0.08474266,
     0.1162733,    0.0010645912,  0.15044129,   0.02391762,   -0.24431139,
     -0.048888143, -0.1708972,    0.025476875,  0.15377802,   -0.1980853,
     0.028799843,  -0.112703286,  0.012107044,  0.11136804,   -0.11579338,
     0.07059488,   0.00021262161, 0.20877086,   0.15548345,   0.037755348,
     -0.09831962,  0.054475,      -0.1202148,   0.29358137,   0.06053877,
     -0.1523763,   -0.1952689},
    {0.02371815,   0.038524292,   0.014703307,   -0.020447718,   0.12021049,
     0.1730948,    -0.015683843,  0.122226246,   -0.00032885998, -0.19640012,
     -0.08357673,  -0.06403939,   -0.0074250544, 0.096694164,    -0.10712032,
     0.11169637,   -0.1039507,    -0.079164766,  0.21052445,     -0.09294817,
     0.07383255,   0.09698533,    0.06611374,    0.12254972,     -0.039261807,
     -0.025321586, -0.0028088898, -0.010831394,  0.09302217,     -0.073800944,
     -0.047965124, -0.08872825},
    {0.13113071,   -0.16157702,   -0.044889204, -0.15304917,   0.14214264,
     0.036233116,  -0.0024105667, 0.17090262,   0.073860675,   -0.37210327,
     -0.12429464,  -0.007679724,  0.093466565,  -0.007936321,  -0.1092582,
     0.060629483,  -0.042855065,  0.028207831,  -0.0036827985, -0.18023519,
     0.032387167,  0.06311448,    0.112710774,  0.010569101,   0.15976703,
     -0.009756897, 0.10194139,    0.11039741,   0.08788998,    0.09351837,
     -0.4491411,   -0.025525438},
    {-0.019209702, -0.20129186, 0.044870213, -0.24577036,  -0.012367985,
     0.15083067,   0.13109319,  0.2057662,   -0.052735746, -0.2892713,
     -0.18153404,  -0.18719013, 0.031283535, -0.030668773, -0.29127634,
     -0.03022272,  -0.0884332,  -0.12851208, 0.14701836,   0.09112929,
     0.1342548,    -0.08353214, 0.036657482, 0.17860058,   0.0298755,
     -0.22151889,  0.09447769,  0.008390666, -0.021489164, 0.098156,
     -0.16086103,  0.056845006},
    {0.07064924,   -0.10346734, -0.068007514, -0.13524193, -0.049640946,
     0.0051235394, 0.032452006, 0.123726614,  0.13476655,  -0.2595852,
     -0.035278928, -0.0367365,  -0.11922339,  0.06572868,  -0.34918693,
     0.02698433,   -0.08121842, -0.014936308, 0.14641832,  -0.04019833,
     0.14499782,   0.107513905, 0.08862988,   0.11233567,  0.12068684,
     -0.14162567,  0.051947348, 0.10607306,   -0.02877067, 0.14772457,
     -0.2466446,   -0.012272034},
    {0.09437783,   -0.13208875,  -0.010663014, -0.112297244, 0.003960087,
     0.046382565,  -0.020144975, 0.1207669,    0.26530743,   -0.103163175,
     0.0022691574, 0.009213317,  -0.030775247, 0.044143073,  -0.26061326,
     -0.023478765, -0.14324883,  -0.011757982, 0.19277474,   -0.26522836,
     0.1618165,    0.15793051,   0.18327065,   0.12036455,   0.11442805,
     -0.15002465,  0.10903406,   0.07771553,   0.09104676,   0.11301053,
     -0.13749681,  -0.018414885},
    {0.09585439,   -0.08320399,  -0.1084973,  -0.10226851,  -0.052708294,
     0.12880039,   -0.102843635, 0.2353979,   0.088244066,  -0.15311883,
     -0.056213804, 0.08382837,   -0.15670773, 0.030289793,  -0.10442607,
     -0.15504238,  -0.034201708, -0.18213399, 0.09266566,   -0.30626214,
     0.123012505,  0.16682647,   0.07114808,  0.22425047,   -0.04083309,
     -0.22267322,  0.16866732,   0.04217108,  -0.013061272, 0.2610573,
     -0.1314703,   -0.019796476},
    {0.15347625,    -0.08299792, -0.014242855, -0.15699302,  -0.08940375,
     0.18736966,    -0.08826605, 0.11224365,   0.0004548693, -0.15977956,
     0.012933607,   0.048571274, -0.10839419,  0.07630335,   -0.143256,
     -0.0011142589, -0.1960676,  -0.12625265,  0.017190184,  -0.13614586,
     0.16828881,    0.1340466,   0.080213465,  0.2265656,    0.043559212,
     -0.002387744,  0.20458715,  0.0027664877, -0.00843634,  0.15112445,
     -0.17085162,   0.008714751},
    {-0.06340978,  0.05568002,  -0.10496348,  -0.18483576, 0.12379235,
     -0.023541877, -0.09929322, 0.02399402,   -0.03703922, -0.14010161,
     0.024332242,  0.061812434, 0.015227781,  0.079173006, 0.059421156,
     0.049059596,  -0.14020957, -0.034683686, 0.17343327,  -0.085775964,
     -0.0810478,   0.1635164,   0.15823358,   0.045192957, 0.11881763,
     -0.02431528,  0.09576984,  0.026931094,  0.086717986, 0.14074141,
     -0.13655624,  0.032264415},
    {-0.055010132, 0.03046099,    0.021074908,  0.030415593,   0.12130808,
     -0.027964652, -0.048005342,  -0.027581245, -0.12681514,   -0.028906088,
     0.106424645,  0.046700526,   -0.015422,    0.11804445,    0.047269583,
     0.029659178,  -0.11170993,   0.0027131801, 0.018429363,   -0.105566435,
     0.030344483,  0.033472456,   0.102759294,  -0.025528964,  0.12590739,
     0.06657477,   -0.0076871403, -0.12029561,  -0.0016543997, 0.15631084,
     -0.058389537, -0.068916015},
    {-0.024007797,  -0.02627774,   -0.0026983544, -0.014623284, 0.026414387,
     -0.074982256,  -0.03484025,   0.022013031,   -0.07496699,  -0.023068935,
     0.044904076,   -0.055496745,  0.041724123,   -0.04705784,  0.046663962,
     -0.0066475645, 0.063422926,   -0.02595482,   -0.018086866, 0.008777112,
     0.05646462,    0.07846647,    0.060526304,   -0.005586691, 0.07576165,
     0.036907755,   -0.0012883916, 0.02088447,    0.046511002,  0.00030813366,
     -0.0016101673, -0.03943969},
    {0.067391075,  -0.025056891, -0.0629731,   0.032304652,  -0.06920053,
     -0.05952011,  0.055941246,  0.041895904,  -0.03253271,  -0.0070107505,
     0.005250387,  0.074270286,  0.009130105,  0.0556136,    0.020260327,
     0.067112364,  -0.062953204, 0.004310563,  -0.009376481, -0.06403008,
     -0.015244238, -0.043060035, -0.040772837, -0.08211981,  -0.020975403,
     0.052502163,  0.066200666,  0.03668262,   -0.04055355,  0.07271486,
     -0.024202649, 0.04499068},
    {-1.0386109e-05, 0.05142463,   0.010912538,  0.06901001,   -0.06033373,
     0.00069019943,  -0.033261158, 0.04825013,   -0.061979137, -0.012598321,
     0.07094618,     -0.058751855, -0.049919438, 0.08069403,   -0.06214907,
     0.031528816,    0.043706767,  0.04255613,   0.077418946,  0.065071516,
     0.034710467,    -0.050739642, -0.08076121,  -0.05712147,  0.010211013,
     0.07160189,     0.06651724,   0.07039357,   -0.06990148,  -0.077568926,
     0.0031313822,   -0.029610023},
    {-0.027322173,   0.023435928, 0.009278879,  -0.08211615,  0.011805311,
     0.078669064,    -0.06435539, -0.01353845,  -0.01651916,  0.029144384,
     -0.001758717,   -0.05333616, -0.048730444, 0.032758944,  -0.0528162,
     -0.005173065,   0.01579915,  -0.020902418, -0.08396925,  -0.0145844,
     0.019324414,    0.04145602,  0.06364895,   -0.044712253, -0.023335159,
     -0.061224647,   -0.04799799, -0.06217757,  -0.07019849,  0.04222194,
     -0.00049364567, 0.036106423},
    {-0.13643026,   0.1718995,    0.07663441,   -0.120797195,  0.112029485,
     -0.0691009,    0.06740657,   -0.050662916, -0.12194899,   -0.003407189,
     0.0693868,     -0.079890415, 0.06346328,   0.16612384,    -0.093187235,
     0.11765401,    0.061706252,  -0.024065843, -0.0027966246, 0.05935958,
     -0.0017499934, -0.01317789,  0.18338202,   0.020946514,   -0.10416077,
     0.13124873,    -0.011414239, -0.08659984,  0.037944447,   0.014250267,
     -0.029997075,  -0.087900065},
    {0.12933776,  -0.062770925,  -0.09970257,   -0.0821892,   0.13219158,
     0.17891723,  0.042219758,   0.16475819,    -0.032221045, -0.07549375,
     0.10446414,  0.06933134,    0.1301464,     0.08079045,   -0.18811512,
     0.03432579,  -0.18933508,   -0.2041035,    -0.09090792,  0.051859245,
     0.21113405,  -0.0117415255, -0.10274728,   -0.11217844,  0.096210286,
     0.12830906,  0.13000135,    -0.0019497632, 0.029601665,  0.13873106,
     -0.10248571, -0.010175487},
    {0.09443047,   -0.13542762,  -0.009258615, 0.009279419,  0.12054073,
     0.19218916,   0.05201274,   0.26199216,   0.065227345,  -0.07106281,
     -0.06297273,  -0.15520906,  0.036520407,  -0.05870353,  -0.18618643,
     0.01289973,   -0.107401125, -0.28155947,  0.038520668,  -0.0033966443,
     -0.023350459, -0.022783594, -0.09160619,  0.13299178,   -0.010688352,
     0.051760416,  0.03176154,   0.17734885,   -0.037529506, 0.10375132,
     -0.06037457,  0.085997306},
    {5.2771884e-05, 0.109510764,   0.047779974,  -0.16544428,  0.024512438,
     0.14338665,    -0.042250592,  -0.06769987,  -0.032137174, 0.025280664,
     -0.11167025,   0.009492379,   0.043791685,  -0.041519023, -0.14943808,
     -0.021279205,  -0.0031509914, -0.057788413, 0.15770307,   -0.0072367857,
     0.17995463,    0.018950095,   0.01743586,   -0.000786154, 0.11731146,
     -0.11512385,   -0.05574247,   0.10233129,   -0.07082699,  -0.00445812,
     0.08848852,    -0.11367341},
    {0.113474146,  -0.13813841, 0.11939045,    -0.27304795,  -0.09825861,
     0.12172033,   0.03343335,  0.0539572,     -0.101916626, -0.02717124,
     0.02966576,   0.040059343, -0.09168413,   0.041973136,  -0.22244063,
     0.08355154,   -0.11807001, -0.08092172,   0.08827304,   -0.025425596,
     0.1510654,    0.12705334,  -0.0054336158, 0.103817604,  0.17510322,
     -0.16240254,  0.146854,    0.12593175,    -0.072768874, -0.06673154,
     -0.013115427, -0.2185103},
    {0.056487035,  -0.00651844,  0.10545192,  -0.20582525,  -0.045570593,
     0.06588817,   -0.060734745, 0.046164326, -0.022841124, -0.08318482,
     0.009806562,  0.16989924,   -0.03954832, -0.061662905, -0.23213165,
     0.006698166,  -0.14983654,  -0.16178618, 0.13218652,   -0.030008296,
     0.16644317,   0.09423682,   -0.02599676, 0.17583561,   0.14320746,
     -0.064939424, 0.031452853,  0.20433335,  0.015688924,  0.00041551236,
     -0.09465204,  -0.20453785},
    {0.23550062,   0.038023595, 0.050813995,  -0.38475218,   0.07044223,
     0.1391822,    0.06451281,  -0.0651354,   -0.18179096,   -0.092262916,
     0.20417498,   0.20985807,  -0.057729855, -0.0048003504, -0.27857798,
     -0.021979833, -0.29027665, -0.24583821,  -0.056992244,  -0.14142685,
     0.13387376,   -0.02332102, 0.15036872,   0.011057022,   0.24686666,
     0.023003865,  0.14965326,  0.032654867,  -0.0072282935, -0.17873548,
     0.09914281,   -0.06618832},
    {0.19896764,   0.02017918,  0.039280977,  -0.47460717,  0.11423768,
     0.05384445,   -0.04721299, 0.08041617,   -0.054776926, -0.10673436,
     0.14166512,   0.117679924, -0.035666678, 0.13542561,   -0.28211278,
     0.13010593,   -0.24072012, -0.13113786,  0.014979658,  -0.27356237,
     0.07626717,   0.14497548,  0.15175527,   0.05809569,   0.10659919,
     -0.064963296, 0.1514015,   0.042916358,  0.15956658,   -0.2001224,
     -0.12902631,  -0.04334682},
    {0.18185842,   0.03491934,   0.08486011,   -0.50899893,  0.121888824,
     0.12489972,   -0.097021975, -0.008860256, -0.07973405,  -0.032625236,
     0.17482853,   0.09340175,   -0.109314755, -0.023519032, -0.3602817,
     -0.023062684, -0.18010515,  -0.030307913, 0.11081373,   -0.24755388,
     0.030819833,  -0.020050151, 0.025777185,  0.15166971,   0.17015892,
     -0.038958047, 0.078171864,  0.060960397,  0.14884563,   -0.27414608,
     0.02541376,   -0.011025956},
    {0.2289223,    0.019076487,  0.030203115, -0.48000774,  0.14304064,
     0.09447207,   -0.093610324, -0.07348163, 0.0036170275, -0.102520026,
     0.21639039,   0.28961527,   -0.03860295, 0.10153058,   -0.33015618,
     -0.016572513, -0.055377234, -0.12087627, 0.064625494,  -0.24091233,
     0.12126039,   -0.01740736,  0.0743886,   0.024943864,  0.2323835,
     -0.103252865, 0.208018,     0.23353118,  0.052733485,  -0.09966453,
     0.06359275,   -0.0022906975},
    {0.20560645,   0.13763398,   0.05665403,  -0.3987582,   0.22176266,
     0.21083134,   -0.045765202, -0.08455036, -0.14591978,  -0.08180053,
     0.18522714,   0.18551333,   0.027917795, 0.07697604,   -0.22288673,
     0.0078262435, -0.1298884,   -0.08243427, 0.045337684,  -0.19905503,
     0.15303344,   -0.10447005,  0.03553389,  -0.012675605, 0.1649958,
     0.0493109,    0.0298113,    -0.07974324, 0.11430356,   -0.19875193,
     0.164709,     -0.074694544},
    {0.18530938,  0.05021784,  -0.004649757, -0.5481169,   0.114889,
     0.18073499,  0.05630161,  0.083515234,  -0.0665903,   -0.05509848,
     0.1700321,   0.08659173,  0.03232,      0.18738095,   -0.19537404,
     0.035728734, -0.16302466, -0.14902756,  -0.043949116, -0.18456776,
     0.18577991,  0.016456254, 0.11662773,   0.109459266,  0.07090936,
     0.046934858, 0.037015826, -0.10022978,  0.17194286,   -0.14874615,
     0.05086635,  0.009253093},
    {0.12096858,  0.16588636,   0.09107273,   -0.27330473, 0.09117409,
     0.14040396,  0.030862434,  -0.071598634, -0.06515115, 0.008040204,
     0.059265837, 0.079272024,  -0.025328148, 0.060240027, -0.10032556,
     0.05917623,  -0.08695416,  -0.130076,    0.015572412, -0.30928147,
     0.17206603,  -0.017404014, -0.01034455,  0.12844127,  0.19160765,
     -0.08863861, 0.11721251,   -0.03712919,  0.03029665,  -0.15522449,
     0.032918323, -0.06393023},
    {0.06093847,   0.06091753,  0.08844101,  -0.22230457, 0.11747236,
     0.05579179,   -0.08317148, -0.09803973, -0.15927966, 0.002988555,
     -0.07711172,  0.037685346, 0.102642976, 0.17351113,  -0.14496566,
     0.08082192,   -0.11866446, -0.19604379, -0.04386343, -0.16952813,
     0.119126566,  -0.1236195,  0.014955288, 0.056953464, 0.1314711,
     -0.01430946,  0.037648883, -0.10410552, 0.1885587,   -0.03496494,
     -0.038471088, 0.01471433},
    {0.008412362,  0.12402189,   0.023081586,  -0.15418893, 0.13797629,
     0.016016055,  0.06329702,   -0.034648303, -0.06281683, 0.05186882,
     -0.09843172,  0.08836037,   -0.008172601, 0.04929727,  -0.12640946,
     0.037782136,  -0.10914138,  0.003920923,  0.045643553, -0.28797436,
     0.076353624,  -0.063122384, 0.13932212,   0.08224752,  0.17042896,
     -0.074160054, -0.1345668,   -0.109776795, 0.1265947,   -0.14734499,
     -0.0644078,   0.09861366},
    {0.12752499,   0.035031874,   0.024626266,  0.020209463, 0.055605702,
     -0.020580932, -0.0003798903, -0.031780425, -0.12965576, 0.02960174,
     -0.04502685,  0.2144863,     0.014991027,  -0.035479,   -0.09968504,
     0.04350933,   -0.103418216,  -0.043870408, 0.023209658, -0.13668147,
     0.1618353,    -0.06408025,   -0.008887155, 0.036678676, 0.21221793,
     -0.10425884,  0.03711634,    0.011036926,  0.14512646,  0.02597005,
     -0.19284292,  0.030779043},
    {0.20281531,  -0.03778457,  -0.011811474, 0.20031816,  0.039880704,
     0.09593055,  -0.07373806,  -0.066768266, 0.006454807, -0.060841814,
     -0.24962129, 0.06284102,   0.07348447,   -0.10417899, -0.14871995,
     0.038296472, 0.050592065,  -0.116355,    0.10795821,  -0.23181783,
     0.031356663, -0.14425002,  0.014060983,  0.030444838, 0.28144342,
     -0.0844775,  -0.007093661, 0.0043243663, 0.008050231, 0.0010086745,
     -0.34772867, -0.092877075},
    {0.12930797,  -0.16549766,  -0.09625402, 0.12189958,   0.016688645,
     0.041883416, -0.055594984, -0.05001174, -0.017689101, -0.068263,
     -0.35649204, -0.10619841,  0.04616752,  -0.049446125, -0.2035299,
     0.14636454,  -0.08191426,  -0.0457252,  0.18386416,   -0.15522732,
     0.082238875, 0.0058468324, -0.04138156, 0.031841535,  0.096239544,
     -0.07316723, 0.03571326,   0.061217632, 0.0488102,    0.00023826608,
     -0.33579722, -0.022594955},
    {0.01925466,   -0.166852,    0.06945116,    0.15766129,   0.071741536,
     0.20661467,   0.0029645192, -0.026283173,  -0.19386975,  0.15087658,
     -0.2609993,   -0.029614769, 0.043016218,   -0.09744482,  -0.10544648,
     0.14938119,   -0.08126906,  0.00044617616, 0.08562771,   -0.2888441,
     0.0007768252, -0.13970956,  -0.15069629,   0.035108164,  0.08385654,
     0.05162211,   -0.0555521,   0.11216506,    0.0076868036, 0.1401356,
     -0.4029489,   0.05218509},
    {0.15077403,  -0.14771798,  -0.031547815, 0.10395557,  0.06592025,
     0.11439536,  -0.12758678,  0.04664168,   0.026256654, -0.052971274,
     -0.17634113, -0.035296172, 0.02822608,   -0.04979188, -0.21844916,
     0.10928789,  0.02618305,   -0.072844036, 0.14256749,  -0.18003988,
     -0.04123206, -0.06874929,  -0.031032804, 0.12726824,  0.017290704,
     0.032749835, 0.11592307,   0.24393019,   -0.08650794, 0.0036672677,
     -0.41390416, 0.117425464},
    {0.112392396,  -0.11199782,  -0.084353834, 0.037283022, -0.04997749,
     0.01238085,   0.0050112135, 0.10909901,   0.20571893,  -0.053644914,
     -0.14964665,  0.012976829,  -0.057884283, 0.042310994, -0.096363254,
     -0.023941107, 0.18592843,   -0.073565125, 0.2040191,   -0.0930642,
     -0.034783028, 0.017549278,  0.11984915,   0.15584292,  0.12210289,
     -0.07035031,  0.13049276,   0.14484344,   -0.05424556, -0.038328335,
     -0.1262756,   0.040083732},
    {0.071311876,  -0.12966928,  -0.08296838,  -0.063995786, -0.028213918,
     0.112023026,  -0.06494993,  0.13793564,   0.088007644,  -0.05998339,
     -0.066520005, -0.0502332,   -0.031210024, -0.004258547, -0.14696087,
     -0.1851852,   0.13524708,   -0.08395113,  0.016013464,  -0.21710193,
     0.034331456,  -0.020164158, 0.003721086,  0.19194447,   0.03990734,
     -0.078074925, 0.11691349,   0.14210662,   -0.12690292,  0.08320388,
     -0.09401282,  -0.12065952},
    {0.19813217,   -0.046109717, 0.069939695,   -0.053811606, -0.07745602,
     -0.019830786, 0.11156607,   0.07377424,    0.06623315,   -0.23759373,
     0.029085794,  0.113694385,  -0.07318768,   0.051786397,  -0.040893227,
     -0.03511498,  -0.12381185,  -0.17174327,   0.094363816,  -0.22697644,
     0.06809214,   -0.011332835, -0.0037933425, 0.14918719,   0.16073346,
     -0.115063064, 0.08589523,   0.064785056,   0.018293338,  -0.004662769,
     -0.051040158, 0.021844886},
    {0.08686861,    0.06923052,   0.05055184,    0.019536402,  0.03999603,
     0.022247825,   0.082956895,  -0.04080431,   -0.15459113,  -0.10364055,
     -0.011761691,  0.022082983,  0.12602048,    -0.0756755,   0.14546731,
     -0.07335504,   0.0852294,    -0.028765215,  0.15855242,   0.064598344,
     -0.0046288054, -0.02834488,  0.00082996255, -0.096387014, 0.13008256,
     0.10231075,    0.051209405,  0.08602437,    0.035618376,  -0.120680645,
     0.12206387,    -0.0058731544},
    {0.037170712,  -0.0063139717, 0.0517396,     -0.012007447, -0.08095819,
     0.05196604,   0.03634279,    0.15128592,    0.049249526,  -0.12955838,
     0.053965297,  0.03796915,    0.037020613,   -0.1335179,   0.009654717,
     -0.115466505, -0.0703521,    -0.0140834795, 0.119029105,  -0.06109362,
     0.024034364,  -0.03824306,   -0.10560344,   0.055851236,  -0.047897488,
     -0.059391476, -0.017651282,  0.13163565,    -0.12751284,  -0.059076943,
     -0.038330507, 0.07289742},
    {0.021364436,  0.010382906,  -0.06024663,   -0.015354611,  0.030411907,
     -0.07883802,  -0.017569028, 0.038704596,   -0.0024867505, -0.08522534,
     -0.040335637, 0.07313266,   -0.0078103095, 0.046302266,   -0.027200755,
     0.07860757,   0.005556211,  0.027308084,   0.063718684,   -0.08554446,
     -0.0794795,   0.030012183,  0.06106361,    0.079721354,   0.03723386,
     -0.02097281,  0.05525004,   0.016224131,   0.07783707,    -0.010380149,
     0.019762285,  -0.012446381},
    {0.018749073,  0.080550484, -0.02027724,  0.0060425997, 0.06869603,
     0.05897353,   -0.01855123, 0.04471042,   0.015653387,  0.07788419,
     0.07098854,   0.036518678, 0.037153475,  -0.04054439,  -0.057318427,
     -0.03957793,  -0.06381401, -0.05201753,  -0.04456293,  0.031277172,
     -0.062442467, -0.03409236, -0.006896533, 0.07786561,   0.024346553,
     -0.08116173,  -0.08537692, 0.07056307,   0.0012061298, -0.08502957,
     -0.015730992, 0.04645195},
    {0.018880017,  -0.037635084, -0.05594507,  0.07441031,   0.009773404,
     -0.05996941,  0.07558367,   -0.06610751,  0.050423704,  -0.03541883,
     -0.014807297, -0.036700033, 0.04122917,   -0.033009086, 0.043009248,
     0.034426037,  0.030429473,  -0.084440455, -0.019104356, 0.067335136,
     0.06416837,   -0.011380233, 0.025948774,  -0.03478119,  -0.0031982712,
     -0.015354384, -0.011598923, 0.05474233,   0.06858622,   -0.048565038,
     -0.05863712,  0.056861594},
    {-0.028448587, 0.021897905,  0.12234556,  -0.12693292,  0.15358907,
     0.005821163,  0.037772432,  -0.13171682, -0.015481361, 0.08728426,
     0.14013804,   -0.025244681, 0.14904076,  0.013296778,  -0.06561395,
     0.032589957,  0.024630303,  -0.08857882, -0.032383848, 0.09384711,
     -0.07086132,  -0.06407018,  0.123237655, -0.12818794,  -0.01377626,
     0.03651806,   -0.062152,    -0.15168566, 0.08788436,   0.09283338,
     0.036093522,  0.030711817},
    {0.06371549,  -0.064317726, 0.20696175,   0.059916794,  0.053555258,
     0.09071129,  0.15264294,   0.035494126,  -0.18721281,  0.20163903,
     -0.11884552, -0.06422046,  0.18416916,   -0.16270421,  0.037623577,
     0.12079737,  0.03583878,   -0.017558247, -0.18469356,  -0.0024888306,
     0.08042666,  -0.05339284,  -0.17392255,  -0.050713748, 0.11009556,
     0.08557952,  -0.22035323,  -0.035728443, -0.019947726, 0.14050731,
     0.14453115,  -0.08997491},
    {-0.05757316,  0.24312551,  -0.009776646, 0.061250392,  -0.07187631,
     0.06839354,   0.03507449,  0.034412377,  -0.033792052, 0.1849525,
     -0.011399963, 0.056675967, -0.090191595, -0.14818883,  -0.11428166,
     0.0027279062, 0.11809764,  -0.0813128,   0.03409785,   0.041376002,
     0.2588834,    -0.08030113, -0.1080244,   0.10091701,   0.02235836,
     -0.078618184, -0.08179422, 0.0039119204, -0.111244306, 0.0024945345,
     -0.005161288, -0.12822258},
    {-0.00523942, 0.13348228,   0.07899686,   -0.1056002,   0.05382405,
     0.052690666, -0.028551038, -0.2023757,   -0.08999908,  0.18928534,
     -0.10040664, 0.21950315,   0.06845629,   -0.041961852, -0.318106,
     0.028073007, -0.18785875,  0.04028485,   0.23733187,   -0.117039375,
     0.22637887,  0.16357599,   0.05551941,   -0.013540532, 0.05151159,
     -0.1952734,  -0.056529123, 0.0036888954, 0.09087066,   -0.019716887,
     0.006654395, -0.12117879},
    {-0.09836092,  0.04617706,   -0.0003788887, -0.16084261, 0.1957454,
     -0.046498038, -0.12039445,  -0.13376229,   -0.15653747, 0.0030763452,
     0.058424793,  0.19569932,   0.06943887,    0.008630217, -0.19054757,
     -0.006711405, -0.15795015,  0.058447532,   0.29692128,  -0.050293695,
     0.13293786,   0.1577142,    0.115758725,   0.04095897,  0.027674126,
     -0.11505487,  -0.021175459, 0.08945514,    0.08210537,  -0.14582181,
     0.0023295453, -0.17947963},
    {-0.04876192,  -0.037618462, 0.093114175,  -0.28556097,  0.097676866,
     -0.026904443, 0.06600967,   -0.085923344, 0.0147138145, 0.07076284,
     0.16251339,   0.16276602,   0.05519338,   0.015585936,  -0.25389543,
     0.05129731,   -0.09511982,  -0.066034436, 0.07335391,   -0.067058824,
     0.18251796,   0.041566968,  -0.009390635, 0.04868571,   0.09675782,
     -0.06352132,  0.028218651,  0.16038334,   -0.017052114, -0.19791925,
     0.14255634,   0.013117948},
    {-0.010914137, 0.121778525,  0.0691515,   -0.2207364,   0.068890214,
     0.077676855,  0.08000149,   -0.11867127, -0.043449365, -0.024486633,
     0.18738474,   0.054838963,  0.013921451, -0.065914415, -0.1726673,
     -0.124478795, -0.033268735, 0.016910622, 0.06394182,   -0.097922675,
     0.18428215,   0.086722605,  0.13281694,  0.025415432,  0.07800411,
     -0.18862022,  0.080622904,  0.034242548, -0.036263444, -0.24045545,
     0.07519658,   0.029394265},
    {0.07541792,   -0.01759154,  -0.03828252,  -0.2941025,  0.08976896,
     0.02354837,   0.03522991,   0.002277369,  0.01550214,  -0.06835852,
     0.22154593,   0.14953281,   0.11355402,   0.037960477, -0.26841384,
     -0.021178337, -0.028617797, -0.039317537, -0.16495301, -0.2592076,
     0.122246854,  0.07070956,   0.15270384,   0.06792109,  -0.010684704,
     -0.104008876, 0.053933073,  0.029133141,  0.06881176,  -0.3274444,
     0.086352915,  0.012170341},
    {0.062475633,  0.058702633,  0.06482455,   -0.37135595,  0.13168725,
     0.15217772,   0.039162926,  -0.02323172,  -0.0786548,   -0.0143755535,
     0.19319588,   0.10000867,   0.089476146,  -0.023242986, -0.31678364,
     0.06542622,   -0.109663144, -0.082198225, -0.12082833,  -0.2937002,
     -0.034888484, -0.043310598, 0.08278464,   0.15448365,   0.10676878,
     -0.11093822,  0.007956039,  0.06466296,   0.08683056,   -0.3210635,
     0.07145357,   0.028307429},
    {0.054225564, 0.05620164,  -0.02650376,  -0.16857065, 0.19350865,
     0.0753306,   0.04092491,  0.063356444,  0.005295574, 0.03240712,
     0.16485661,  0.08953206,  0.12374183,   -0.04535666, -0.20753989,
     0.037831612, 0.067328036, -0.10756492,  -0.05151541, -0.22506909,
     0.030671861, -0.13228522, 0.0872303,    0.018423978, 0.022494635,
     0.026911283, 0.05119767,  -0.021191461, 0.08908811,  -0.24888521,
     0.02452098,  0.09763349},
    {0.13868622,     0.072698765,  0.085757904,   -0.20597753,  0.09388591,
     0.016010454,    0.05849889,   -0.063922346,  -0.013176766, 0.052559324,
     0.1922624,      0.08281427,   0.20112853,    0.08823489,   -0.23792942,
     -0.037403032,   -0.01760896,  -0.0027595786, -0.04058583,  -0.27964297,
     -0.00076184643, -0.06060556,  0.091132514,   0.027220365,  0.019529061,
     -0.09099427,    -0.067750156, -0.054498654,  0.01804735,   -0.09300897,
     0.1559788,      0.11514917},
    {-0.034724563, 0.123457864,   0.0002480064, -0.162365,    0.124774344,
     -0.04849105,  0.027185863,   -0.0821973,   -0.07899414,  0.025260158,
     0.14754176,   0.044806156,   0.14005944,   0.053535253,  -0.08461648,
     -0.072205335, 0.04165299,    0.020764742,  -0.053615715, -0.16415444,
     -0.039825853, 0.0010230326,  0.072131254,  0.051184393,  -0.03778518,
     -0.09669659,  -0.0073107826, 0.017682664,  0.09325848,   0.0044277096,
     0.130715,     -0.012391239},
    {0.06447998,    0.014544189,  -0.012875831, -0.24981955,  0.1021436,
     -0.022536151,  -0.054710303, 0.047135327,  -0.050486583, -0.08494811,
     0.10886374,    0.0653671,    0.23398778,   0.11367156,   -0.0058115185,
     0.08860811,    0.043222018,  -0.043329425, -0.12907296,  -0.1656395,
     -0.054796364,  -0.0885258,   0.029544018,  -0.023012904, -0.012967939,
     0.00060246186, 0.056167506,  0.005582064,  0.04440665,   -0.0964969,
     0.07930819,    0.03089218},
    {0.093254045,  -0.097846985, 0.085248075,   -0.12448407,   0.07490874,
     0.062165715,  -0.047563918, -0.077867374,  -0.06156677,   0.07166482,
     0.1924223,    0.09794905,   0.10406899,    0.06723602,    -0.06619258,
     0.1332586,    0.028605456,  -0.206384,     -0.13344556,   -0.23607793,
     -0.076808654, -0.18600547,  -0.0010064344, -0.085926265,  -0.08262445,
     -0.058438286, -0.102075085, -0.088003546,  -0.0131193055, -0.057200745,
     0.023861038,  0.052718032},
    {0.069990695,  0.013479681,  0.049349822,   -0.08721402, 0.17469528,
     0.085965425,  -0.03566295,  -0.0247573,    0.12284031,  0.0011822295,
     -0.03901854,  0.14013134,   0.0996796,     0.085158296, -0.14949983,
     0.046265833,  -0.025636915, -0.0066713914, -0.22878255, -0.26429763,
     0.003173023,  -0.093130395, 0.12699361,    0.054125518, -0.0087525565,
     -0.094575584, 0.0074223904, 0.0006400086,  0.043870095, -0.1270889,
     -0.051596057, 0.06964438},
    {0.19667293,   -0.13663486,  -0.06284282,  0.017489305, 0.1145021,
     0.044931006,  -0.009507385, -0.06490578,  0.056496546, -0.053013183,
     -0.10349327,  0.1584639,    0.05889195,   0.014727312, 0.048289847,
     0.0964094,    -0.021526204, -0.026362287, -0.10651241, -0.05744276,
     -0.049118597, -0.07386942,  0.09674655,   -0.03258654, -0.011082005,
     0.029059066,  0.036408957,  0.07089105,   0.115907036, -0.018229604,
     -0.006151443, 0.017300762},
    {0.071927615,  -0.1362686,   -0.006960054,   -0.020936087, 0.18778676,
     0.05961005,   0.0023733957, -0.045132145,   0.07316176,   0.08374079,
     -0.09540802,  0.035924543,  0.11305739,     0.039078787,  -0.14996716,
     0.14791125,   -0.070323296, 0.0071562687,   -0.04663151,  -0.15992337,
     -0.046093367, -0.1114165,   -0.00038159842, -0.06931152,  0.06640732,
     0.035807114,  -0.002652377, 0.16382965,     -0.024860397, 0.0165812,
     -0.080910966, 0.08556464},
    {0.06006135,   -0.023522785, -0.024967346, 0.07159149,    0.15799478,
     -0.031404592, 0.026259124,  0.01590101,   0.06713039,    0.03744407,
     -0.14126658,  -0.008914247, 0.042552855,  -0.0014662273, -0.08564079,
     0.037764534,  -0.06540289,  0.052069783,  -0.058882967,  -0.12972419,
     -0.034694742, -0.10660186,  0.056240797,  0.1143395,     0.000654318,
     -0.07931774,  0.092275485,  0.04878913,   0.101001956,   0.03617735,
     -0.16572997,  0.10914824},
    {0.0102071315, -0.14035074,  -0.06669746,  0.07064059,  0.082009256,
     0.06329131,   -0.053639513, -0.051402584, 0.15051083,  0.0027799192,
     -0.24504893,  -0.010404538, 0.04410136,   0.07586637,  0.01112915,
     0.012384922,  0.06263413,   0.13698153,   -0.1802683,  -0.12223266,
     -0.11635699,  -0.06417139,  -0.004586836, 0.04307474,  -0.032164194,
     -0.028897254, 0.048912074,  0.10397381,   -0.01270732, 0.105014116,
     -0.15942815,  -0.0044564456},
    {0.0067077745, -0.06542953,  0.05731106,   0.16770904,   -0.035643335,
     0.081414536,  -0.046284262, 0.115285985,  0.058127675,  0.1578031,
     -0.17230137,  -0.16253296,  -0.023145791, -0.005485347, -0.08171317,
     0.087969005,  0.0929868,    0.0041530915, -0.09999829,  -0.1271898,
     -0.099378586, -0.041733813, -0.1107908,   0.082879744,  -0.005107036,
     -0.0897742,   0.07984424,   0.099995784,  -0.12433017,  0.06697586,
     -0.12684521,  0.091683835},
    {0.066473335,  -0.09301702, 0.024841335,   0.063821554,  0.030365324,
     0.112800844,  0.07556058,  -0.0008231454, 0.18334736,   0.20535868,
     -0.15767108,  -0.09909878, -0.031187214,  0.027543122,  -0.014003616,
     -0.036171015, 0.09516889,  0.07521085,    -0.10396372,  -0.15040842,
     -0.14669286,  -0.16148067, -0.08697695,   0.13662405,   -0.009233609,
     -0.03837081,  0.036189098, 0.074500956,   -0.032155808, 0.06777351,
     -0.05487186,  0.021946533},
    {-0.008761442, -0.19849473, 0.016985321,  0.027213998, -0.022359716,
     0.15563014,   -0.01374605, 0.15417781,   0.17047712,  0.10047531,
     -0.20304422,  -0.19659674, -0.058683418, -0.0281145,  -0.09771324,
     0.044347983,  0.14569193,  -0.019162444, 0.14846589,  -0.007668099,
     -0.14962748,  -0.14964437, -0.005713076, 0.17478871,  -0.18724224,
     -0.11610722,  0.025917143, 0.070368245,  -0.10814987, 0.13040225,
     -0.12834784,  0.085729375},
    {0.13250537,   -0.17469746, 0.11820569,   0.1669004,    0.13557199,
     0.007825779,  0.0407419,   0.17669132,   -0.015955295, 0.041229095,
     -0.16089077,  -0.17186834, 0.041593924,  -0.15578927,  0.09273521,
     0.110847734,  0.2350121,   0.042782154,  -0.01788395,  -0.024064807,
     -0.21382067,  0.015256853, -0.107485555, 0.05305483,   0.041550804,
     0.000261527,  0.04001467,  0.17257507,   -0.27269062,  -0.09101015,
     -0.021780957, 0.049266633},
    {0.13256672,   -0.13633662, 0.14714228,  0.14485694,   0.048102535,
     -0.06259285,  0.12800577,  0.10411779,  -0.008981169, 0.023419362,
     -0.026473748, 0.043815117, 0.15028782,  -0.15595676,  0.16615021,
     0.10995458,   0.1503962,   -0.05790134, -0.04956862,  -0.0877932,
     -0.09803989,  0.16710162,  -0.09630371, -0.08263931,  0.06917679,
     -0.10527536,  0.053742457, 0.15330227,  -0.15658839,  -0.22434002,
     0.10054819,   0.1273336},
    {0.09340556,   -0.06704634,  0.08178205,  -0.013957764, 0.08842483,
     -0.103309534, 0.074892126,  0.07713966,  0.057813648,  -0.045874473,
     -0.03141728,  0.048648182,  0.03174019,  0.0074935174, -0.006877902,
     -0.093016386, 0.17697975,   -0.143893,   -0.037840124, -0.058170483,
     0.07264985,   0.15169246,   0.10993343,  0.008470936,  0.120679036,
     -0.05546915,  -0.015007808, 0.043103307, 0.009364873,  -0.1879255,
     -0.023101032, -0.0069767213},
    {0.06627456,  -0.03418061,  -0.07941128,  -0.12861992,  -0.12798172,
     -0.01844613, 0.08501479,   0.01820117,   0.14242508,   -0.092206016,
     -0.07289756, 0.07634336,   -0.0693489,   0.20647746,   -0.109630734,
     -0.14408016, -0.026982002, -0.056036342, -0.05266916,  -0.07664385,
     0.05220853,  0.24914333,   0.14631356,   0.07155715,   0.09375353,
     -0.23221959, 0.06313261,   0.08127831,   -0.014497045, -0.0048864735,
     0.016244449, 0.010852933},
    {-0.022613049, 0.055163957,  -0.0043312907, 0.054886602,   0.03257186,
     -0.007281214, -0.022509702, 0.022491999,   -0.0041601136, -0.05378221,
     0.020983726,  -0.07797883,  -0.0394337,    -0.0012191907, -0.07696944,
     0.076024584,  -0.0755198,   -0.053226784,  -0.043122653,  0.07161068,
     0.022578537,  0.051606767,  -0.08247468,   0.038127437,   -0.059463844,
     0.04574325,   -0.009451203, 0.07297828,    -0.079357564,  -0.06484419,
     0.04586018,   0.076938175},
    {-0.044892162, -0.019470587, 0.048262067,   0.047623046,  -0.076351695,
     -0.020985998, 0.044605426,  -0.010209091,  -0.01760783,  -0.046432044,
     0.040064387,  -0.043432303, -0.079750285,  -0.08029833,  -0.075394906,
     0.042554073,  0.06997501,   -0.0035557598, 0.0043159425, 0.0062436834,
     -0.03990373,  -0.022702776, 0.055902384,   -0.054235645, 0.0070492327,
     -0.0830047,   0.019486472,  0.024869747,   -0.026012719, -0.08215603,
     -0.01300627,  0.059656598},
    {0.022488546,  0.07326521,    0.005643631,   -0.09904089,  0.08156619,
     -0.044719476, -0.0018203179, -0.04050498,   0.015243157,  -0.02445557,
     -0.009329799, 0.006632947,   0.04129274,    0.08315795,   -0.00072848925,
     0.06321387,   -0.07563333,   -0.031814497,  0.09122457,   0.12681171,
     -0.04531595,  -0.0008376561, 0.089341626,   0.035159416,  -0.07368651,
     -0.08176459,  -0.03531648,   -0.0084585445, 0.0066196523, 0.06344231,
     0.051645763,  0.055136673},
    {0.023473628, 0.12273648,   0.08419626,  0.048133794,  0.22251362,
     0.057543434, 0.027281305,  -0.13149558, -0.04548037,  0.004878581,
     0.06776915,  0.056296505,  0.1945408,   -0.11099382,  -0.033931747,
     0.18887982,  -0.09736709,  0.00827437,  -0.007474226, 0.10154434,
     -0.07219701, -0.13187598,  0.03926464,  -0.17536388,  0.10753555,
     0.07293584,  -0.092303514, 0.016309896, 0.016450593,  0.14616776,
     0.09212906,  -0.06557925},
    {-0.08992006,   0.3028012,     -0.097468294, -0.08460452,  0.06567869,
     0.013432036,   0.014259104,   -0.14432468,  -0.018022906, 0.11150638,
     0.04845301,    0.16841398,    -0.028767858, 0.103223436,  -0.19244815,
     -0.0026082643, -0.19154954,   -0.025286067, 0.15632279,   0.02893708,
     0.23821685,    0.09599149,    0.022748759,  0.01004911,   -0.0052163494,
     -0.07727043,   -0.0049267057, 0.03075323,   0.10586249,   -0.10449151,
     0.11016417,    -0.17354703},
    {-0.20972216,  0.16870382,   0.11491015,   -0.049319815, -0.0077542136,
     -0.14922705,  0.033188086,  -0.064815,    -0.16679901,  0.1766522,
     -0.033137146, -0.03453324,  0.09850336,   -0.17949788,  -0.1685726,
     0.07815955,   -0.047166657, 0.08017027,   0.16197182,   -0.12866214,
     0.24452263,   0.11665678,   -0.057296284, -0.015934056, 0.04897507,
     -0.084537596, -0.14338629,  -0.13039184,  0.1194409,    0.06992008,
     0.21187761,   -0.001440079},
    {-0.11815054,  0.056834873,  0.004020505,  -0.124787726,  0.04832251,
     -0.19367437,  0.019220402,  -0.13316664,  -0.18369329,   0.14940454,
     0.008983113,  -0.026474003, 0.07810138,   -0.100114405,  -0.07075611,
     -0.039876703, -0.10104841,  -0.05257024,  0.10464787,    -0.05378117,
     0.1741404,    0.0041014887, -0.09778506,  0.028736934,   0.097942576,
     0.09425975,   -0.14014426,  -0.067897044, -0.0045005553, -0.1548132,
     0.13672857,   -0.047636308},
    {-0.09167679,  0.029912401,  -0.0018986298, -0.16620651, 0.02995692,
     -0.07131488,  0.07126466,   -0.09220745,   -0.10925046, 0.055669982,
     -0.0454189,   0.09583455,   -0.007645735,  -0.10466271, -0.023787078,
     -0.080535546, -0.07833226,  -0.02331311,   0.124740645, -0.07035563,
     -0.008911738, 0.14400083,   0.006929284,   0.022499956, 0.15776356,
     -0.065899126, -0.027122935, 0.12729032,    0.034553625, -0.15632808,
     0.096368395,  -0.010160576},
    {-0.040451437, 0.037429553,  -0.09957106,   -0.1234885,   -0.076988526,
     0.015651148,  0.0828772,    0.051227838,   -0.037077226, -0.044237815,
     0.05597737,   0.05408808,   -0.0060086935, -0.12146648,  -0.06719227,
     -0.085175514, -0.111333035, -0.010201895,  0.06613182,   -0.12639585,
     0.0646911,    0.20583737,   -0.10433087,   0.1337708,    0.13363868,
     -0.07037051,  -0.025511164, 0.032374352,   -0.06684098,  -0.3995307,
     0.15048496,   0.008177757},
    {0.084511496,  0.0007676553, 0.085017845,   -0.07790106,   -0.093353,
     -0.07358774,  0.12820382,   -0.04824754,   -0.0020811604, -0.035481736,
     -0.007823371, -0.08041996,  -0.0020063242, -0.06420723,   -0.038603388,
     -0.05246691,  0.015345509,  0.070264064,   -0.0032489202, -0.1987757,
     -0.039588667, 0.16440108,   -0.14928755,   0.029514903,   0.060592134,
     0.053941205,  -0.09330437,  0.09070629,    0.055445578,   -0.27109343,
     0.11799266,   0.07578442},
    {0.028347734,  0.0304175,     0.04804421,   -0.07117404,  0.031274553,
     0.0024111974, -0.0065431623, 0.113268554,  0.05915482,   0.09101791,
     0.18421473,   0.041924678,   -0.01268931,  -0.078393176, -0.13229854,
     -0.012864566, 0.017566796,   -0.034741968, -0.017079718, -0.2508959,
     0.0021985362, 0.04107293,    -0.018786434, 0.019526578,  0.07555881,
     0.087315895,  0.013398844,   0.08480138,   -0.025085593, -0.26937506,
     0.06288661,   0.17171225},
    {0.07539715,   0.039681144, 0.09696133,  0.04431682,   -0.05920203,
     -0.019930014, 0.088009484, 0.10583414,  0.02555002,   0.009150112,
     0.24956052,   -0.02551612, 0.11683741,  -0.122465484, -0.015550985,
     0.008144936,  0.010669728, -0.08141245, -0.05908429,  -0.21940413,
     0.020673255,  0.09157107,  0.043869592, -0.062448885, 0.017824307,
     -0.045340642, 0.015020428, 0.14261258,  0.0009403844, -0.18112262,
     0.06915073,   0.061856102},
    {0.030831208,  -0.07176835,  0.047221728,  -0.10764695,  0.020910757,
     -0.054976095, 0.0579478,    0.057743378,  0.07039437,   -0.035647556,
     0.14858663,   0.075332396,  0.17081027,   -0.08030915,  -0.012590045,
     0.023786519,  0.091501184,  -0.028517175, -0.056462288, -0.18174334,
     0.058590546,  0.04811617,   0.025240172,  -0.030313862, -0.058636736,
     0.01607771,   -0.015653202, 0.09636624,   -0.08364224,  -0.120378345,
     0.08536025,   0.06323527},
    {0.10537444,   0.04788027,   0.12993324,   -0.10973336,  -0.064549655,
     0.015284027,  0.12617742,   0.052258324,  0.061616644,  -0.054991763,
     0.24738793,   0.115664646,  0.114494264,  -0.029466076, 0.02056056,
     -0.1442115,   0.09179123,   -0.13038374,  -0.20943783,  -0.15799716,
     -0.075348094, 0.0406355,    0.06328098,   -0.044609055, 0.04274583,
     0.057326477,  0.0017740089, -0.036347687, 0.063612625,  -0.010480651,
     0.08560487,   0.1342854},
    {0.03747036,   -0.043994192,  0.011841859,  -0.11853409, -0.041464422,
     -0.005669379, 0.11203596,    0.017445043,  0.01241387,  0.047628094,
     0.24645728,   -0.0065556816, 0.017967118,  0.10475382,  0.008607719,
     -0.058629174, -0.041939866,  -0.055168062, -0.06937313, -0.052250627,
     -0.07771732,  -0.035715453,  0.098940484,  0.1086857,   0.021970725,
     0.06373356,   0.0054259626,  0.1265364,    -0.03578254, -0.08568575,
     0.015551263,  0.0035514585},
    {0.051916458,  0.002211379,  0.04902544,   -0.16694844, 0.07972424,
     -0.030661285, 0.031917505,  -0.02932896,  0.11879068,  0.003742458,
     0.14125569,   0.010155166,  0.0016379051, 0.045647725, 0.037833374,
     -0.008302795, -0.07751527,  -0.010420834, -0.13422085, -0.07008491,
     -0.047182027, -0.105622776, -0.01578183,  0.04294041,  -0.02440276,
     0.0077088983, -0.044376865, 0.020270323,  0.108351976, -0.049917415,
     0.14885251,   -0.035898402},
    {0.11264426,   -0.0919898,    -0.07644178,  -0.092832446, 0.15111682,
     0.030820858,  0.048797574,   -0.057022184, 0.031405143,  -0.072044276,
     0.10650096,   0.007412252,   0.07374807,   0.021619033,  -0.06401806,
     -0.033432446, -0.0101187695, 0.0016749433, -0.10013114,  -0.102265045,
     -0.13164552,  -0.20218357,   0.042659715,  0.06673233,   0.06413995,
     0.0044674715, 0.12887932,    0.20644334,   0.061510023,  -0.07850038,
     -0.018590847, -0.039725825},
    {0.14129981,  -0.16685024, 0.06308093,   -0.043664645, 0.036528688,
     0.031376783, 0.028848998, -0.035658494, 0.030948697,  -0.112413995,
     0.11363089,  0.12134291,  -0.019775992, 0.04146348,   0.04578789,
     0.05359826,  -0.04981932, -0.008930703, -0.04894702,  -0.052039977,
     -0.19278577, -0.12130506, 0.021604434,  -0.05118174,  -0.037031263,
     -0.09085351, 0.0864496,   0.15531732,   -0.008706046, 0.020929378,
     0.047355313, -0.023831887},
    {0.09580187,   -0.07044117, -0.008930518, -0.14208359,  0.1484091,
     0.03420758,   0.14480351,  0.012685049,  0.018517436,  -0.020522488,
     0.02386699,   0.1638608,   0.03855209,   0.10656529,   -0.06729663,
     0.022420287,  -0.09507124, 0.074095815,  -0.035083625, -0.10804343,
     -0.16165218,  -0.17299126, 0.040793035,  -0.037597246, -0.033854775,
     -0.13369405,  0.053868502, 0.13608745,   -0.029197963, -0.03412773,
     -0.082067855, 0.09768527},
    {0.02775122,  -0.12792514,  -0.047798164,  -0.07317235,  0.045258448,
     0.06214141,  0.0578786,    -0.022013659,  0.13131557,   0.023646275,
     -0.05621334, 0.092541866,  0.07053789,    0.042811945,  -0.11631352,
     0.09047651,  -0.057605937, 0.21056828,    -0.18751825,  -0.13376217,
     -0.14901721, -0.056676496, -0.0025380792, -0.075219855, 0.017535958,
     -0.18314587, 0.1241865,    0.18232124,    -0.03531334,  0.15425481,
     -0.17775047, -0.055601265},
    {0.096340925, -0.15172884,  0.013331765, -0.09581899,  0.13036177,
     0.101992495, 0.101896234,  0.075141214, 0.032048997,  -0.034075797,
     -0.09906381, 0.023124272,  0.06399541,  0.014018593,  -0.034240518,
     0.08458855,  0.12062035,   0.16412488,  -0.18777643,  -0.06778442,
     -0.19966835, -0.14452489,  0.10433236,  -0.091055736, -0.016601296,
     -0.22015631, 0.0759134,    0.062179863, 0.045353107,  0.022758111,
     -0.23516707, -0.0088480245},
    {0.022638457, -0.17250253, -0.067376554, 0.000984833, 0.015869286,
     0.052969966, 0.013625018, 0.06758431,   0.16857576,  -0.0101300785,
     -0.09733518, 0.01759068,  0.109245345,  0.10794873,  -0.05739241,
     0.113177925, -0.06119907, 0.14659192,   -0.20422082, -0.1839747,
     -0.1849354,  -0.09350869, 0.008242249,  0.021169813, -0.07572311,
     -0.1122243,  0.010616117, 0.06235244,   0.025073595, 0.106163666,
     -0.33624038, -0.04338461},
    {-0.06480197, -0.21840598, 0.045120567,  -0.12202885, 0.050848402,
     0.033393178, 0.18843788,  0.022220543,  0.095993094, 0.008799686,
     -0.08043589, 0.01494767,  0.04515005,   0.06186772,  -0.04489167,
     0.052522965, 0.059825525, 0.046400424,  -0.24030915, -0.076880366,
     -0.2066112,  -0.12813574, -0.06745447,  0.08980581,  -0.201166,
     -0.05222716, 0.078431204, -0.028453719, 0.04504843,  0.04362854,
     -0.19994546, 0.06577066},
    {-0.0322933,   -0.22618943, 0.037250407,  -0.00816871,  0.17523237,
     0.1559738,    0.20426896,  -0.0582173,   0.050238665,  0.051641252,
     -0.28635392,  -0.11641798, -0.023083663, -0.07743029,  -0.115085654,
     0.11397192,   0.041699,    0.12861183,   -0.012071981, -0.0063006873,
     -0.20220977,  0.04672172,  0.024415247,  0.16841546,   -0.08665505,
     -0.050514743, 0.034681734, 0.1218888,    -0.076241165, 0.11960258,
     -0.2792161,   0.033555858},
    {0.06767411,  -0.16142493, -0.010351773, -0.025727207, 0.12568934,
     0.049925208, 0.05708998,  0.1712595,    0.1269905,    -0.014965358,
     -0.17422202, -0.09729844, 0.013055571,  -0.034122508, -0.10019472,
     0.13329521,  0.21682198,  0.029573556,  0.023985876,  -0.0018456692,
     -0.12343627, -0.03191471, -0.014661234, 0.26428342,   -0.023630353,
     -0.08653361, 0.16256763,  0.08672724,   -0.04715374,  0.034478102,
     -0.0921567,  0.06349135},
    {0.196884,     -0.23711647, 0.13671762,   -0.062472936,  0.06807957,
     -0.06507386,  0.21003754,  0.05280737,   0.14341094,    -0.2095308,
     -0.021270644, -0.02883083, 0.16181186,   -0.17282194,   0.09343969,
     0.05600406,   0.28112444,  0.028536195,  -0.0032756648, -0.06821982,
     -0.055016167, 0.19266254,  0.0026894999, -0.022945857,  0.14705114,
     -0.03265063,  0.107694305, 0.1683173,    -0.13306199,   -0.22102785,
     -0.004986821, 0.031619735},
    {0.15447201,   -0.10804007, 0.073147975,   -0.07910396, -0.06399595,
     0.0332118,    0.014633252, 0.16182333,    0.11418779,  -0.18247922,
     -0.08413005,  -0.06674301, -0.0055214665, -0.09094043, -0.11919275,
     0.030353459,  0.051163785, -0.1638142,    -0.16358133, -0.05524526,
     -0.034326795, 0.06253564,  -0.035028134,  0.043304298, 0.09414332,
     -0.040247384, 0.12944295,  0.08929873,    -0.07672551, 0.035928126,
     -0.14171284,  -0.023882328},
    {0.11023191,    0.06677348,   -0.002877086, 0.13236043,   0.04559849,
     0.10625156,    -0.04434737,  0.109260485,  -0.010417983, -0.12114297,
     -0.020737248,  0.049462933,  -0.065608025, 0.060980923,  -0.15064847,
     -0.115426905,  -0.060102623, -0.07979174,  0.0073472233, -0.02830963,
     0.02218681,    0.091763325,  0.12351465,   0.17858715,   0.039619923,
     -0.15069033,   0.16856575,   0.12296438,   -0.05514312,  0.0031990346,
     -0.0046204305, 0.017941877},
    {0.020765752,  0.015756875,  0.0075280145, 0.08053065,   -0.068032324,
     0.058421798,  0.02273596,   -0.021086462, 0.063214175,  -0.024900433,
     0.07735581,   -0.05536934,  0.0020610616, -0.022762723, 0.07383598,
     0.013147883,  0.052735753,  0.04997409,   0.072301425,  0.08102102,
     -0.068631366, 0.0135522485, -0.031570114, 0.011632107,  0.019863218,
     0.0813921,    0.0049930736, 0.017688997,  -0.08341599,  0.06811348,
     -0.020801015, 0.07169374},
    {-0.010041715, 0.028098593,  0.008404209,  -0.022713654,  0.0871519,
     0.0517984,    0.023890514,  -0.091574036, 0.016810602,   0.120685324,
     -0.1563281,   0.029040525,  0.05580402,   -0.073977955,  -0.15118341,
     0.09770702,   -0.1507438,   0.026920797,  -0.11286495,   -0.1023766,
     0.07154873,   -0.1271757,   0.008106,     -0.0073465533, 0.008411919,
     0.12894373,   -0.014734374, 0.046334516,  0.1432569,     -0.11579131,
     -0.023678996, 0.06296779},
    {0.08712556,  -0.20548135,   0.048272625,  0.040423643,  -0.10840601,
     0.018966397, 0.030507538,   0.008958433,  0.06814529,   0.05105902,
     -0.09013187, -0.03006593,   -0.09478519,  -0.06266307,  -0.0015751962,
     0.06372272,  -0.0036661155, -0.14624526,  0.10574018,   -0.039326463,
     0.1239933,   -0.055966742,  -0.0435808,   -0.036071353, 0.12930684,
     0.08538362,  0.07691952,    -0.023562754, -0.08430097,  -0.1027965,
     0.13546038,  0.19939406},
    {-0.07313176, 0.17166544,  -0.03127001,  -0.04584594, -0.060433377,
     0.05039002,  0.111090206, -0.090275615, -0.25818285, 0.20993976,
     -0.07350754, 0.10404688,  0.054671243,  0.031881962, 0.02761548,
     0.09129336,  -0.15334864, -0.008557915, 0.24440534,  0.04418453,
     0.2463187,   0.036437154, -0.11206939,  -0.16166507, 0.112693205,
     0.06788345,  -0.04954105, -0.2482439,   0.122147284, 0.021341927,
     0.18902437,  0.07135336},
    {-0.1007337,  0.2710298,   -0.0024147944, 0.0077444944, 0.023694174,
     0.0306489,   0.077309914, -0.023739733,  0.006221136,  0.1736813,
     -0.12749328, 0.0652747,   -0.05132767,   0.021083156,  0.011451975,
     0.022678066, -0.16956443, 0.10339183,    0.15745084,   0.036582343,
     0.07141306,  0.024286905, 0.014950824,   0.0822472,    0.07371782,
     0.080722906, 0.03922977,  -0.01357494,   0.1799495,    -0.070590764,
     0.17782609,  -0.003649452},
    {-0.061261658, 0.070710115, -0.03975557,  -0.06992081, 0.046137027,
     -0.09260426,  0.11062508,  -0.056753602, -0.21005417, 0.05988811,
     -0.15670481,  0.0203084,   -0.02589204,  -0.11446265, 0.024809102,
     0.18413596,   -0.08165503, 0.0890301,    0.08924579,  -0.046379328,
     -0.048053276, -0.09117829, -0.19486281,  0.13843767,  0.05397104,
     0.13079157,   -0.12845191, 0.13897501,   0.08896078,  -0.10887851,
     0.1582459,    0.06031312},
    {0.028015597, 0.08319363,  -0.041522004, 0.011218487,  -0.008613613,
     -0.14187777, 0.07406557,  -0.15787642,  -0.13422878,  -0.007584729,
     -0.1069171,  -0.06028846, 0.09466433,   -0.076058835, 0.018031595,
     0.04376734,  -0.04645469, 0.054297436,  0.06027204,   -0.1796235,
     0.07802537,  0.008397898, -0.16241176,  0.103924245,  0.13288501,
     0.15719652,  -0.16826001, 0.15996252,   -0.007710515, -0.11690926,
     0.17787021,  0.05031706},
    {0.041143533,  0.049297474,  -0.12528801,  -0.09144733,  -0.009348664,
     -0.035611074, -0.08139932,  0.035955586,  -0.046135,    0.09805328,
     -0.062611006, -0.13229291,  -0.031417936, -0.03933079,  -0.049023595,
     0.06130133,   -0.056249857, 0.09013252,   0.015148153,  -0.19008769,
     -0.055119216, 0.13476682,   -0.11074637,  0.022379035,  0.021325998,
     0.19586432,   -0.09345072,  0.08516745,   -0.041071877, -0.04608419,
     0.11707724,   0.111106694},
    {-0.000160275,   0.0023184596, 0.07516972, -0.020677248, -0.045648485,
     0.004189442,    0.034910448,  0.067106,   -0.07157942,  0.032550555,
     0.020783365,    -0.02811395,  0.08040144, -0.19107613,  0.09893006,
     -0.00078289735, 0.07834276,   0.07991442, 0.109640144,  -0.21669488,
     -0.01574989,    0.11017063,   -0.0645328, 0.08167802,   0.14294389,
     0.16645592,     -0.095232315, 0.21152551, -0.056441028, -0.18006897,
     -0.009177327,   0.01643448},
    {0.025580503, -0.03849172,  0.08189019,  0.09024543,   -0.016307414,
     -0.05523024, -0.019645942, 0.04050968,  -0.036976084, 0.121899635,
     0.111484684, -0.030580742, 0.09319321,  -0.14945617,  -0.07060355,
     0.09938886,  0.108254105,  0.06080393,  0.07510452,   -0.23937166,
     0.009181103, 0.18302314,   0.012404515, -0.065260924, 0.122835785,
     0.03543582,  -0.0805643,   0.20270677,  0.009855366,  -0.21712336,
     0.07769577,  0.086014315},
    {-0.039138973, 0.096156985,  0.06772606,    0.014845494,  0.011477515,
     0.0107427295, -0.024465354, 0.06409252,    0.023651816,  0.086144194,
     0.07358411,   0.0026301069, 0.13509773,    -0.14308946,  0.021369724,
     0.1390524,    0.009639757,  -0.0045192237, 0.00708808,   -0.32641166,
     0.063619405,  0.07430642,   -0.09124612,   -0.050569586, 0.11681149,
     0.04750595,   -0.19747713,  0.10670682,    0.15779375,   -0.17170648,
     -0.06090487,  0.0058620106},
    {-0.020280879, 0.023089632, 0.10557661,    0.004805724,  -0.12823106,
     -0.039391868, 0.08081585,  0.06298873,    -0.050913755, 0.016840922,
     0.18129785,   0.043729845, 0.056957126,   -0.014464654, -0.0220283,
     0.074992485,  0.15824121,  -0.09137224,   -0.040995315, -0.11232916,
     0.034651574,  0.047521498, 0.00013157763, -0.05696849,  -0.01945749,
     0.043729432,  -0.15264763, -0.023222653,  0.043289613,  -0.10443805,
     -0.114993006, 0.013267545},
    {0.12087687,   0.06853577,  0.06978414,    0.062077742,  -0.09694474,
     -0.042838506, 0.030126672, 0.1107578,     -0.027546754, -0.051591404,
     0.09438186,   0.06417585,  0.086907305,   0.04253098,   0.006932578,
     -0.053846676, 0.17955925,  -0.11279342,   -0.05471704,  -0.16183326,
     0.055893023,  0.08276868,  0.019329462,   -0.20039974,  0.056005042,
     0.119006135,  -0.13755515, -0.0039839717, 0.054372337,  -0.07683924,
     -0.059986837, 0.07549644},
    {0.06462941,   0.03816848,  0.19566797,   -0.033583567, -0.026230456,
     0.049159847,  0.05938872,  0.09149056,   -0.020431481, -0.01796335,
     0.19980198,   0.13810408,  0.017239835,  0.022640962,  -0.0014397139,
     -0.1224666,   0.0638622,   -0.056405623, -0.008597566, -0.06467589,
     -0.008983602, 0.06590336,  0.030849047,  -0.15635145,  0.11392947,
     0.028690085,  -0.13728936, 0.07986859,   0.08549641,   0.021991864,
     -0.026383823, -0.02185603},
    {0.07865499,   0.06053895,   0.21141723,   -0.017994521, 0.042664178,
     0.020079648,  0.09681216,   0.16946623,   0.03171727,   -0.0026281402,
     0.3461314,    0.06068253,   0.0001702919, -0.0526217,   0.034857675,
     -0.14142388,  -0.021700626, -0.09814767,  -0.06122148,  -0.0037287134,
     0.0042765364, 0.020263113,  0.061084095,  -0.17865603,  0.090967394,
     0.08653842,   -0.007390925, 0.10671053,   0.014956246,  0.033851467,
     -0.04684779,  -0.10333225},
    {0.09399084,    -0.023246909, 0.13758332,   -0.06535003,  -0.022460144,
     -0.0046385108, 0.028266067,  0.07313443,   -0.029531362, -0.13856184,
     0.25935125,    0.04271824,   0.04400056,   -0.08143146,  0.0819625,
     -0.04412465,   0.0671004,    -0.087508425, -0.028769126, -0.12362365,
     0.06812721,    0.040713344,  0.11387109,   -0.20592749,  0.020042548,
     -0.06373932,   0.04957842,   0.10726217,   0.10793017,   0.044607557,
     0.061478015,   -0.09802934},
    {0.013638856,   0.053435385,  0.037246544,   -0.003467511, 0.009815679,
     -0.08373743,   0.0376431,    0.19696453,    -0.039837852, 0.008358653,
     0.333494,      0.083591655,  0.00025880418, -0.065683804, -0.011774413,
     -0.008823182,  -0.053045433, -0.09321916,   -0.036326773, -0.08226438,
     0.030705683,   0.10952026,   0.047505617,   -0.18072166,  0.008192064,
     -0.0098766405, 0.09209802,   0.020873798,   0.067753896,  -0.07809114,
     0.030695682,   -0.20451006},
    {0.11191849,  -0.07505107,  0.11849975,   -0.10966791, 0.024400221,
     0.039230224, 0.12619664,   0.18068115,   0.039133377, -0.10593567,
     0.2546558,   0.077355705,  0.047097735,  -0.0158903,  0.069587216,
     0.018343896, 0.07381183,   0.05437749,   0.050420254, 0.0357473,
     0.0638032,   -0.04175881,  -0.028010689, -0.17148079, 0.06512189,
     -0.0913725,  -0.026915945, 0.05849616,   0.06366327,  0.0019785368,
     0.1287469,   -0.08213391},
    {0.105051264,  0.042476013, 0.030186895,  -0.09190301,  -0.05063108,
     -0.037411116, 0.17995195,  0.06958251,   -0.010233574, -0.08782205,
     0.22311999,   0.10116614,  -0.057804864, 0.021560226,  0.048292946,
     0.10897125,   0.056690957, 0.10317353,   -0.0207698,   0.003075905,
     -0.09982738,  -0.18099517, 0.05778797,   -0.20942226,  0.09168818,
     -0.06904914,  -0.0506469,  0.006644097,  0.036789987,  0.13274772,
     0.115148716,  0.04109383},
    {0.07365656,  -0.10744233,  0.019950204,  -0.00219857,   0.106237195,
     -0.04967193, 0.059865505,  0.19428691,   -0.0023987112, 0.020943396,
     0.051904686, 0.07000149,   0.09583877,   -0.010301983,  0.08795019,
     0.060975112, 0.057935953,  0.1273107,    -0.119200684,  0.047472168,
     -0.04263453, -0.09312699,  0.001108631,  -0.21470009,   0.011342382,
     -0.18425909, 0.003512287,  -0.072808325, 0.027315617,   0.12674049,
     -0.10347475, -0.0015976431},
    {0.10228307,   -0.17627467,  0.05621032,   0.02540343,  0.044831246,
     -0.009805416, 0.06975275,   0.06878628,   0.012618055, 0.049913783,
     -0.018152677, 0.0064645396, 0.06652602,   -0.02059229, -0.004726701,
     0.07913264,   0.09103331,   0.15215349,   -0.18001221, 0.04658771,
     -0.106277175, -0.12542059,  0.062153213,  -0.28862518, 0.043943558,
     -0.14243075,  -0.071474396, -0.037453208, 0.025539132, 0.07192747,
     -0.21704829,  -0.024581082},
    {0.043765932,  -0.241267,   0.090424985,  -0.08975801,   0.011402645,
     0.0072650565, 0.06967535,  -0.009967387, 0.00970339,    0.041235633,
     -0.043887258, 0.089142255, -0.059841763, 2.9961171e-05, 0.10409898,
     0.053565886,  0.009508908, 0.13630544,   -0.09136423,   -0.008200264,
     -0.20212586,  -0.06731059, 0.050568346,  -0.18323505,   0.0348164,
     -0.02909904,  -0.04630678, -0.07927419,  0.047199935,   -0.03154322,
     -0.1882041,   -0.13136227},
    {0.016429778, -0.17300205,  -0.005219254, -0.041943617,  -0.0071188756,
     0.029542228, 0.13859625,   0.114172675,  0.07439365,    -0.006456807,
     -0.06601228, 0.05467299,   0.014481506,  0.081088975,   0.05999292,
     0.004720289, -0.02301173,  0.07876404,   -0.14053385,   0.1488306,
     -0.26873553, -0.12853849,  -0.029755192, -0.0004798354, -0.0040551387,
     0.036536895, 0.008079403,  0.066755764,  0.012105624,   -0.0013161141,
     -0.26617733, -0.0035447804},
    {0.041353334, -0.2001092,   -0.0045722425, 0.03336167,  0.12627982,
     0.05826838,  0.033829946,  -0.056124736,  0.14096905,  0.17090069,
     -0.23814778, -0.111021444, 0.022751622,   0.07723369,  0.058537427,
     0.027320163, 0.11492846,   0.04355888,    -0.16741604, 0.1560694,
     -0.14409181, -0.006136797, -0.10243177,   0.21405004,  -0.12235326,
     -0.16878112, 0.05885091,   0.16490757,    0.01512127,  0.030132359,
     -0.25593096, 0.08157952},
    {0.035306487,  -0.20483875,  0.10491115,  0.0177882,   0.2147068,
     0.18859628,   0.1998453,    0.08473128,  0.11301602,  -0.13978933,
     -0.2386919,   -0.1427933,   0.09751257,  -0.14354606, -0.17529568,
     0.16008006,   0.113644995,  0.040012274, -0.11559592, 0.12421017,
     -0.12868991,  -0.074497715, -0.0386001,  0.23636405,  -0.05106642,
     -0.018179446, 0.084599055,  0.14847901,  -0.05518966, 0.05974093,
     -0.23199506,  0.0220005},
    {0.19608645,   -0.27375782,   0.15477836,  -0.06745955,  0.20893627,
     0.0595519,    0.18985406,    0.15012498,  0.08455025,   -0.25536287,
     -0.061104093, -0.0754165,    0.18230115,  -0.028523615, -0.0128183635,
     0.1417969,    0.3633388,     -0.11303421, 0.056041323,  -0.0010954457,
     -0.10487203,  -0.0013915789, 0.06815782,  0.19480224,   -0.0027827343,
     -0.20323758,  0.12893647,    0.14197436,  -0.093618415, -0.26292014,
     -0.16151908,  0.04894499},
    {0.037490107,  -0.09319075, 0.10037247,   0.061263338,  0.112238996,
     0.110696495,  0.09629919,  0.048414562,  -0.022951204, -0.09297287,
     -0.15741491,  -0.15141153, 0.14921318,   -0.07796812,  -0.05614045,
     0.1382256,    0.22291453,  0.06858984,   -0.039875794, 0.018841038,
     -0.048557468, 0.04542239,  -0.085474335, 0.14142393,   -0.084,
     0.004473925,  0.14143722,  0.05756678,   -0.008348891, -0.038502157,
     -0.12890851,  0.081843466},
    {-0.068124846,  -0.027901882, 0.004179737, -0.04289626,   -0.016173478,
     0.09372837,    0.096102074,  0.0775269,   0.05565,       -0.06324334,
     -0.030758006,  -0.08223726,  -0.10268609, 0.018564422,   -0.10590519,
     -0.027132701,  0.068162836,  -0.01094743, -0.0074088974, -0.08078038,
     0.036500983,   0.046892583,  0.08552392,  0.177244,      -0.042235203,
     -0.06216525,   0.005437564,  0.023228608, -0.07584516,   0.03484352,
     -0.0019567918, 0.0113946125},
    {-0.03667108,  0.003120832,  0.03563095,    -0.07030383,  -0.028441442,
     0.06777037,   -0.051425282, 0.08607622,    -0.034884233, -0.07385832,
     -0.037526436, 0.052307706,  0.0686585,     0.03469538,   0.00032373806,
     -0.07076115,  -0.04416222,  -0.05191775,   0.08147734,   0.040350534,
     0.062122248,  0.07002355,   -0.0039381376, 0.027417421,  -0.005431179,
     -0.06430721,  0.049159817,  -0.090186715,  0.0062725274, 0.006367499,
     -0.021554217, -0.0119528845},
    {0.065845564, 0.020889478, -0.07335171, 0.0127380565, 0.018281488,
     0.16477129,  0.13062035,  -0.17411199, -0.23850784,  0.24221863,
     -0.07779835, 0.09208743,  0.105991386, -0.13258827,  -0.041114647,
     0.15682235,  -0.26225027, -0.06901827, 0.056358486,  -0.15480779,
     0.19151601,  0.012543884, -0.2087857,  0.007832031,  0.13296273,
     0.046866156, -0.18315136, 0.06594039,  0.12772837,   -0.2149144,
     0.14214876,  -0.031825084},
    {0.10247047,   -0.063253015, -0.10795718,   -0.010948068,  -0.03909493,
     0.032916717,  0.10475076,   0.11716377,    -0.013906692,  -0.011490871,
     -0.019315595, 0.004023725,  -0.09839747,   -0.0010351745, 0.26159966,
     0.17363822,   -0.1234423,   -0.069624595,  0.18173616,    -0.17976843,
     0.094333254,  0.10789176,   -0.07405353,   -0.054245498,  0.20291916,
     0.13192047,   0.16979359,   -0.0016843564, 0.09993839,    0.008153943,
     0.08871516,   0.28511047},
    {-0.028358756, 0.16677362,  -0.12865394,  -0.13711472,  -0.07279051,
     -0.04878855,  0.009527628, -0.057712674, -0.106326826, 0.09909369,
     -0.017882502, -0.098937,   0.0533462,    -0.24591546,  0.2768173,
     0.14640433,   -0.2074179,  0.0028585908, 0.1507634,    0.0039834385,
     0.12403707,   0.12860715,  0.011403177,  -0.11742857,  0.11425907,
     0.068021394,  -0.11025419, -0.069323935, 0.13329792,   0.049087804,
     0.27293575,   0.09907393},
    {-0.08529585, 0.1831318,    -0.030280637, -0.091545865, 0.07719523,
     0.12156653,  0.0065547978, -0.21311171,  -0.2132424,   0.09709879,
     0.04542835,  0.021029124,  0.0952974,    -0.015689582, -0.032004643,
     0.09865482,  -0.06036401,  0.13459687,   0.013530649,  -0.06893149,
     0.09105456,  0.09794153,   0.05973052,   -0.008754187, 0.07816275,
     0.011164167, -0.097661436, 0.076665916,  0.16209672,   -0.020956185,
     0.21104704,  -0.021732483},
    {-0.0411215,   0.049552124,  -0.085553356, -0.081240445, 0.16273618,
     0.070899434,  0.10811513,   -0.1336724,   -0.1082266,   0.09745001,
     -0.10727343,  -0.0789524,   0.075579025,  -0.14916857,  -0.075131945,
     0.1264041,    -0.14114185,  0.15272544,   0.08719415,   -0.10636339,
     -0.074558616, -0.030524816, -0.13013715,  0.017406106,  0.09947826,
     0.09718765,   -0.12008135,  0.27679724,   0.07844,      -0.04445621,
     0.100388475,  0.11714805},
    {0.06277305,   0.10786488,   -0.037676983, -0.0068964628, -0.007462468,
     -0.06387,     -0.006881963, -0.013465377, -0.058861014,  0.086570814,
     -0.019475915, 0.016540827,  0.04556815,   -0.10621761,   -0.03345261,
     0.04761393,   0.0012407296, 0.1379978,    0.03598748,    -0.18482976,
     -0.07298564,  0.2012352,    -0.023125727, -0.06324764,   0.07281877,
     0.10155869,   -0.18066488,  0.13568415,   0.011453914,   -0.2354377,
     0.08206043,   0.13012996},
    {0.10598924,    -0.006595098, -0.073550664, 0.0022298386, 0.06759373,
     0.006589866,   0.020818353,  0.034491077,  -0.12148773,  0.020725103,
     -0.12106954,   -0.087162025, 0.0690252,    -0.024995461, 0.049931847,
     -0.07677876,   -0.069379754, -0.039062377, -0.016545614, -0.09436161,
     0.019765021,   0.08744752,   -0.053062014, 0.05582474,   0.13215713,
     0.091216065,   -0.19135128,  0.14513017,   0.046807576,  -0.16044009,
     -0.0041384287, 0.1958873},
    {0.046059582,  0.0040668785, -0.01538052,  0.05441605,  0.12254957,
     -0.078402676, 0.029064089,  0.0711113,    0.0229978,   -0.10237359,
     -0.05666715,  -0.07192641,  0.11807999,   -0.1730774,  0.08945276,
     0.09864319,   0.027145362,  -0.0215352,   0.030512342, -0.12534977,
     0.061751608,  0.06803802,   -0.088088416, 0.07528488,  0.12316415,
     0.05282151,   -0.1524578,   0.11939557,   0.056536257, -0.1486018,
     0.024269847,  0.04995706},
    {0.0034397307, -0.053250723, 0.104222566,  0.029739028,  -0.03503766,
     -0.12855715,  0.04815792,   0.008063436,  -0.030627666, 0.01868992,
     0.017825698,  0.016680975,  0.056810234,  -0.13442689,  0.060940456,
     0.18179756,   0.14671499,   0.06323742,   0.0353075,    -0.15154478,
     0.12097458,   0.04077148,   -0.004365299, -0.025707105, -0.02839195,
     0.08250617,   -0.124644,    0.066770904,  0.015859969,  -0.13724814,
     -0.065862514, 0.09304028},
    {0.10980496,   0.063840404,  0.1613933,    -0.015200973,  -0.033383537,
     -0.034355838, -0.018726211, 0.1681343,    0.027581902,   0.06645552,
     -0.017911375, 0.05331107,   0.05905966,   -0.0010506446, 0.10511116,
     0.08838619,   0.077809915,  -0.074783385, -0.008801825,  -0.24603032,
     0.097555146,  0.0049033775, -0.054111492, -0.08343862,   0.08551135,
     0.11791776,   -0.14724727,  0.05723929,   0.22638845,    -0.13616782,
     -0.2217927,   0.08765567},
    {0.027885083,  -0.0062035904, 0.15813087,    0.07411085,   -0.08991341,
     -0.109417856, -0.042998396,  0.12804087,    -0.019708915, -0.019563382,
     0.06849746,   -0.0782139,    -0.048350587,  0.049143773,  0.05550233,
     0.095647015,  0.038592145,   -0.06694447,   -0.07665206,  -0.043822482,
     0.1006947,    0.046452645,   -0.0051685795, -0.18683971,  0.02640883,
     0.01777735,   -0.0063166926, 0.010414711,   0.19988249,   -0.112846486,
     -0.17898181,  0.15447819},
    {0.0031259097, 0.07520483,   0.18341918,   0.0030578899, 0.022050546,
     0.004310154,  0.113409035,  0.0072320546, -0.088023536, -0.10234516,
     0.09937426,   -0.011222787, -0.047526274, -0.011099706, 0.029084228,
     -0.005373277, 0.11697036,   0.02754375,   0.0065529617, -0.0969191,
     0.16932653,   0.1052579,    -0.004629831, -0.18183497,  0.11587229,
     0.1028499,    -0.13526908,  0.023864077,  0.20525116,   0.040067233,
     -0.23482029,  0.02722671},
    {0.14094888,   0.001485609,    0.08040452,    0.11764301,    -0.090307094,
     -0.014006625, 0.124887295,    -0.0063501047, -0.0031217753, -0.020967862,
     0.15436174,   -0.029704753,   -0.06652962,   0.010249366,   0.058461156,
     -0.0579148,   -0.00025578737, 0.0542682,     0.06267364,    0.029125955,
     0.13298374,   0.18944049,     0.10766772,    -0.3192104,    0.100391574,
     0.058298692,  -0.0694841,     0.040376443,   0.15287235,    0.079047,
